booster[0]:
0:[f1<2] yes=1,no=2,missing=1
	1:[f2<3506.66016] yes=3,no=4,missing=3
		3:[f4<1050] yes=7,no=8,missing=7
			7:[f2<1184.5] yes=15,no=16,missing=15
				15:leaf=-0.105047897
				16:leaf=-0.0701438859
			8:leaf=-0.0268221591
		4:[f2<6399.0752] yes=9,no=10,missing=9
			9:[f3<26] yes=17,no=18,missing=17
				17:leaf=-0.0222222228
				18:leaf=0.0857142881
			10:[f10<173.5] yes=19,no=20,missing=19
				19:leaf=0.0892307684
				20:leaf=-0.0666666701
	2:[f1<14.5] yes=5,no=6,missing=5
		5:[f0<6.5] yes=11,no=12,missing=11
			11:[f2<5088.13965] yes=21,no=22,missing=21
				21:leaf=0.177952752
				22:leaf=0.0153846163
			12:[f4<318.5] yes=23,no=24,missing=23
				23:leaf=0.035011366
				24:leaf=0.115596332
		6:[f4<83.5] yes=13,no=14,missing=13
			13:[f13<0.63499999] yes=25,no=26,missing=25
				25:leaf=0.126611575
				26:leaf=0.0497890301
			14:leaf=0.157168791
booster[1]:
0:[f1<2] yes=1,no=2,missing=1
	1:[f2<3014.12012] yes=3,no=4,missing=3
		3:[f0<8.5] yes=7,no=8,missing=7
			7:[f13<0.689999998] yes=15,no=16,missing=15
				15:leaf=-0.0665812269
				16:leaf=-0.0260184295
			8:[f13<0.425000012] yes=17,no=18,missing=17
				17:leaf=-0.0658752248
				18:leaf=-0.0977103338
		4:[f2<6399.0752] yes=9,no=10,missing=9
			9:[f3<25.5] yes=19,no=20,missing=19
				19:leaf=-0.0259117838
				20:leaf=0.0634664223
			10:[f10<173.5] yes=21,no=22,missing=21
				21:leaf=0.0807435438
				22:leaf=-0.0618299246
	2:[f1<19.5] yes=5,no=6,missing=5
		5:[f0<6.5] yes=11,no=12,missing=11
			11:[f0<2.5] yes=23,no=24,missing=23
				23:leaf=0.0993375406
				24:leaf=0.173625663
			12:[f1<4.5] yes=25,no=26,missing=25
				25:leaf=-0.00603470625
				26:leaf=0.0526908934
		6:[f4<64] yes=13,no=14,missing=13
			13:[f1<34.5] yes=27,no=28,missing=27
				27:leaf=0.0849828571
				28:leaf=0.140511185
			14:leaf=0.14915055
booster[2]:
0:[f1<2] yes=1,no=2,missing=1
	1:[f2<3014.12012] yes=3,no=4,missing=3
		3:[f0<8.5] yes=7,no=8,missing=7
			7:[f13<0.689999998] yes=15,no=16,missing=15
				15:leaf=-0.0602620505
				16:leaf=-0.0234457329
			8:[f2<1184.5] yes=17,no=18,missing=17
				17:leaf=-0.0884705707
				18:leaf=-0.0584421344
		4:[f2<6399.0752] yes=9,no=10,missing=9
			9:[f9<0.482500017] yes=19,no=20,missing=19
				19:leaf=-0.039375186
				20:leaf=0.0153137241
			10:[f3<88] yes=21,no=22,missing=22
				21:leaf=0.071992673
				22:leaf=-0.0758326948
	2:[f1<11.5] yes=5,no=6,missing=5
		5:[f4<318.5] yes=11,no=12,missing=11
			11:[f13<0.435000002] yes=23,no=24,missing=23
				23:leaf=0.097200796
				24:leaf=0.016682528
			12:[f5<3.5] yes=25,no=26,missing=25
				25:leaf=0.0774492174
				26:leaf=0.155542836
		6:[f4<83.5] yes=13,no=14,missing=13
			13:[f1<27.5] yes=27,no=28,missing=27
				27:leaf=0.0542550348
				28:leaf=0.122984387
			14:[f9<0.70449996] yes=29,no=30,missing=29
				29:leaf=0.134419411
				30:leaf=0.0920302123
booster[3]:
0:[f1<2] yes=1,no=2,missing=1
	1:[f2<3594.46997] yes=3,no=4,missing=3
		3:[f4<699.5] yes=7,no=8,missing=7
			7:[f2<585.109985] yes=15,no=16,missing=15
				15:leaf=-0.082937263
				16:leaf=-0.0582736693
			8:[f2<150] yes=17,no=18,missing=17
				17:leaf=-0.0339966603
				18:leaf=0.174424157
		4:[f2<6399.0752] yes=9,no=10,missing=9
			9:[f2<3685.25] yes=19,no=20,missing=19
				19:leaf=0.106606357
				20:leaf=-0.0156677607
			10:[f10<173.5] yes=21,no=22,missing=21
				21:leaf=0.0675872415
				22:leaf=-0.0616186149
	2:[f1<19.5] yes=5,no=6,missing=5
		5:[f0<6.5] yes=11,no=12,missing=11
			11:[f0<2.5] yes=23,no=24,missing=23
				23:leaf=0.0871419311
				24:leaf=0.152139515
			12:[f4<85] yes=25,no=26,missing=25
				25:leaf=0.0183606725
				26:leaf=0.0604408756
		6:[f12<0.654000044] yes=13,no=14,missing=13
			13:[f13<0.879999995] yes=27,no=28,missing=27
				27:leaf=0.0935673267
				28:leaf=-0.0227245204
			14:[f5<7.5] yes=29,no=30,missing=29
				29:leaf=0.12819165
				30:leaf=-0.0175718516
booster[4]:
0:[f1<4.5] yes=1,no=2,missing=1
	1:[f4<170.5] yes=3,no=4,missing=3
		3:[f2<3004.5] yes=7,no=8,missing=7
			7:[f13<0.425000012] yes=15,no=16,missing=15
				15:leaf=-0.0408042483
				16:leaf=-0.0776238963
			8:[f9<0.651499987] yes=17,no=18,missing=17
				17:leaf=-0.00600978639
				18:leaf=0.072780773
		4:[f1<2] yes=9,no=10,missing=9
			9:[f9<0.421000004] yes=19,no=20,missing=19
				19:leaf=-0.0262554325
				20:leaf=-0.0582883433
			10:[f9<0.421000004] yes=21,no=22,missing=21
				21:leaf=0.119434416
				22:leaf=0.0164117347
	2:[f2<3935.81006] yes=5,no=6,missing=5
		5:[f2<104.779999] yes=11,no=12,missing=11
			11:[f14<0.925000012] yes=23,no=24,missing=24
				23:leaf=0.0684058219
				24:leaf=0.127103552
			12:[f4<318.5] yes=25,no=26,missing=25
				25:leaf=0.0201556217
				26:leaf=0.141859934
		6:[f13<0.644999981] yes=13,no=14,missing=13
			13:[f3<25.5] yes=27,no=28,missing=28
				27:leaf=0.11289116
				28:leaf=0.159463406
			14:[f4<184.5] yes=29,no=30,missing=29
				29:leaf=0.0595188923
				30:leaf=0.12616761
booster[5]:
0:[f1<2] yes=1,no=2,missing=1
	1:[f2<3594.46997] yes=3,no=4,missing=3
		3:[f0<8.5] yes=7,no=8,missing=7
			7:[f2<575.140015] yes=15,no=16,missing=15
				15:leaf=-0.02906291
				16:leaf=0.0313008949
			8:[f2<1184.5] yes=17,no=18,missing=17
				17:leaf=-0.0682266802
				18:leaf=-0.0402318649
		4:[f10<149.5] yes=9,no=10,missing=9
			9:[f9<0.638999999] yes=19,no=20,missing=19
				19:leaf=0.0169464741
				20:leaf=0.110617876
			10:[f3<14.5] yes=21,no=22,missing=22
				21:leaf=-0.0861100927
				22:leaf=0.0140831238
	2:[f1<11.5] yes=5,no=6,missing=5
		5:[f0<6.5] yes=11,no=12,missing=11
			11:[f2<5010.9248] yes=23,no=24,missing=23
				23:leaf=0.129450843
				24:leaf=-0.0362034142
			12:[f3<21.5] yes=25,no=26,missing=26
				25:leaf=0.003671224
				26:leaf=0.0492326394
		6:[f4<64] yes=13,no=14,missing=13
			13:[f13<0.63499999] yes=27,no=28,missing=27
				27:leaf=0.0739506707
				28:leaf=-0.00031243806
			14:[f14<0.745000005] yes=29,no=30,missing=29
				29:leaf=0.127131104
				30:leaf=0.0899396166
booster[6]:
0:[f1<4.5] yes=1,no=2,missing=1
	1:[f4<170.5] yes=3,no=4,missing=3
		3:[f2<3004.5] yes=7,no=8,missing=7
			7:[f13<0.425000012] yes=15,no=16,missing=15
				15:leaf=-0.0314994268
				16:leaf=-0.0661360547
			8:[f2<3123] yes=17,no=18,missing=17
				17:leaf=0.140830323
				18:leaf=-0.000248810713
		4:[f1<2] yes=9,no=10,missing=9
			9:[f9<0.421000004] yes=19,no=20,missing=19
				19:leaf=-0.0199618135
				20:leaf=-0.0479477607
			10:[f9<0.421000004] yes=21,no=22,missing=21
				21:leaf=0.107013397
				22:leaf=0.01318717
	2:[f1<21.5] yes=5,no=6,missing=5
		5:[f13<0.435000002] yes=11,no=12,missing=11
			11:[f4<7.5] yes=23,no=24,missing=23
				23:leaf=0.0375087038
				24:leaf=0.14908269
			12:[f4<85] yes=25,no=26,missing=25
				25:leaf=0.00409058947
				26:leaf=0.061765518
		6:[f12<0.654000044] yes=13,no=14,missing=13
			13:[f1<50.5] yes=27,no=28,missing=27
				27:leaf=0.0535884388
				28:leaf=0.117679201
			14:[f5<7.5] yes=29,no=30,missing=29
				29:leaf=0.115879655
				30:leaf=-0.0853265226
booster[7]:
0:[f1<2] yes=1,no=2,missing=1
	1:[f2<3506.66016] yes=3,no=4,missing=3
		3:[f4<699.5] yes=7,no=8,missing=7
			7:[f2<585.109985] yes=15,no=16,missing=15
				15:leaf=-0.0601858161
				16:leaf=-0.0377573855
			8:[f2<150] yes=17,no=18,missing=17
				17:leaf=-0.0197032969
				18:leaf=0.174427763
		4:[f14<0.784999967] yes=9,no=10,missing=9
			9:[f7<-4.5] yes=19,no=20,missing=19
				19:leaf=-0.0320690311
				20:leaf=0.0352067985
			10:[f6<3.5] yes=21,no=22,missing=21
				21:leaf=0.0655532405
				22:leaf=-0.0469465256
	2:[f1<21.5] yes=5,no=6,missing=5
		5:[f0<6.5] yes=11,no=12,missing=11
			11:[f0<2.5] yes=23,no=24,missing=23
				23:leaf=0.0685811117
				24:leaf=0.128207579
			12:[f13<0.495000005] yes=25,no=26,missing=25
				25:leaf=0.0604185164
				26:leaf=0.0140850944
		6:[f12<0.654000044] yes=13,no=14,missing=13
			13:[f1<50.5] yes=27,no=28,missing=27
				27:leaf=0.0491143353
				28:leaf=0.110723712
			14:[f5<7.5] yes=29,no=30,missing=29
				29:leaf=0.10886009
				30:leaf=-0.080104962
booster[8]:
0:[f1<4.5] yes=1,no=2,missing=1
	1:[f2<1188.83008] yes=3,no=4,missing=3
		3:[f4<699.5] yes=7,no=8,missing=7
			7:[f13<0.425000012] yes=15,no=16,missing=15
				15:leaf=-0.024691565
				16:leaf=-0.0561110862
			8:[f2<150] yes=17,no=18,missing=17
				17:leaf=-0.0147634912
				18:leaf=0.162742674
		4:[f2<6399.0752] yes=9,no=10,missing=9
			9:[f3<8.5] yes=19,no=20,missing=20
				19:leaf=0.0660787448
				20:leaf=-0.0208415333
			10:[f3<88] yes=21,no=22,missing=22
				21:leaf=0.0563605204
				22:leaf=-0.0871111527
	2:[f2<3935.81006] yes=5,no=6,missing=5
		5:[f10<127.5] yes=11,no=12,missing=11
			11:[f4<28.5] yes=23,no=24,missing=23
				23:leaf=0.0183386412
				24:leaf=0.0644026995
			12:[f13<0.670000017] yes=25,no=26,missing=25
				25:leaf=0.0236511659
				26:leaf=-0.0816321
		6:[f13<0.644999981] yes=13,no=14,missing=13
			13:[f3<25.5] yes=27,no=28,missing=28
				27:leaf=0.0913205817
				28:leaf=0.13915278
			14:[f4<184.5] yes=29,no=30,missing=29
				29:leaf=0.0402072147
				30:leaf=0.103520073
booster[9]:
0:[f1<2] yes=1,no=2,missing=1
	1:[f2<3506.66016] yes=3,no=4,missing=3
		3:[f0<8.5] yes=7,no=8,missing=7
			7:[f2<575.140015] yes=15,no=16,missing=15
				15:leaf=-0.0176080372
				16:leaf=0.0401754938
			8:[f13<0.784999967] yes=17,no=18,missing=17
				17:leaf=-0.0423036255
				18:leaf=-0.0693207011
		4:[f0<17.5] yes=9,no=10,missing=9
			9:[f4<29] yes=19,no=20,missing=19
				19:leaf=-0.0276105162
				20:leaf=0.091139473
			10:[f3<9.5] yes=21,no=22,missing=22
				21:leaf=0.0934654921
				22:leaf=-0.00436139479
	2:[f1<8.5] yes=5,no=6,missing=5
		5:[f0<6.5] yes=11,no=12,missing=11
			11:[f0<2.5] yes=23,no=24,missing=23
				23:leaf=0.0561695211
				24:leaf=0.124571659
			12:[f3<19.5] yes=25,no=26,missing=26
				25:leaf=-0.011176534
				26:leaf=0.0338374302
		6:[f2<3983.36499] yes=13,no=14,missing=13
			13:[f10<208.5] yes=27,no=28,missing=27
				27:leaf=0.0439860038
				28:leaf=-0.139491677
			14:[f13<0.574999988] yes=29,no=30,missing=29
				29:leaf=0.107495181
				30:leaf=0.068098329
booster[10]:
0:[f1<2] yes=1,no=2,missing=1
	1:[f4<163.5] yes=3,no=4,missing=3
		3:[f2<3004.5] yes=7,no=8,missing=7
			7:[f13<0.784999967] yes=15,no=16,missing=15
				15:leaf=-0.04184971
				16:leaf=-0.0875542536
			8:[f9<0.645500004] yes=17,no=18,missing=17
				17:leaf=-0.00685725873
				18:leaf=0.0759177431
		4:[f5<2.5] yes=9,no=10,missing=9
			9:leaf=-0.0921407714
			10:[f2<578.910034] yes=21,no=22,missing=21
				21:leaf=-0.0262604598
				22:leaf=0.0156407766
	2:[f4<85] yes=5,no=6,missing=5
		5:[f13<0.454999983] yes=11,no=12,missing=11
			11:[f4<11.5] yes=23,no=24,missing=23
				23:leaf=0.0269050654
				24:leaf=0.121040978
			12:[f2<3816.46997] yes=25,no=26,missing=25
				25:leaf=-0.0125563564
				26:leaf=0.0555174462
		6:[f13<0.625] yes=13,no=14,missing=13
			13:[f3<9.5] yes=27,no=28,missing=28
				27:leaf=-0.0487352051
				28:leaf=0.103520155
			14:[f4<318.5] yes=29,no=30,missing=29
				29:leaf=0.0152295055
				30:leaf=0.080289796
booster[11]:
0:[f1<4.5] yes=1,no=2,missing=1
	1:[f14<0.904999971] yes=3,no=4,missing=3
		3:[f2<939.789978] yes=7,no=8,missing=7
			7:[f3<8.5] yes=15,no=16,missing=15
				15:leaf=-0.0242248308
				16:leaf=-0.0469626151
			8:[f3<19.5] yes=17,no=18,missing=17
				17:leaf=-0.0240335688
				18:leaf=0.0141432872
		4:[f1<2] yes=9,no=10,missing=9
			9:[f2<3207.05005] yes=19,no=20,missing=19
				19:leaf=-0.00712223211
				20:leaf=0.0594395697
			10:[f9<0.726499975] yes=21,no=22,missing=21
				21:leaf=0.110516205
				22:leaf=-0.0230252203
	2:[f13<0.375] yes=5,no=6,missing=5
		5:[f4<2.5] yes=11,no=12,missing=11
			11:[f2<845.679993] yes=23,no=24,missing=23
				23:leaf=0.010033912
				24:leaf=0.11485368
			12:[f11<6] yes=25,no=26,missing=25
				25:leaf=0.127217636
				26:leaf=-0.0178204793
		6:[f4<85] yes=13,no=14,missing=13
			13:[f2<3816.46997] yes=27,no=28,missing=27
				27:leaf=0.000353514246
				28:leaf=0.0600764751
			14:[f0<117] yes=29,no=30,missing=29
				29:leaf=0.0393859707
				30:leaf=0.120200865
booster[12]:
0:[f1<2] yes=1,no=2,missing=1
	1:[f4<163.5] yes=3,no=4,missing=3
		3:[f13<0.444999993] yes=7,no=8,missing=7
			7:[f2<189.300003] yes=15,no=16,missing=15
				15:leaf=-0.0298922565
				16:leaf=0.0419792831
			8:[f2<3004.5] yes=17,no=18,missing=17
				17:leaf=-0.0456884764
				18:leaf=0.00696916878
		4:[f5<2.5] yes=9,no=10,missing=9
			9:leaf=-0.0834537968
			10:[f2<578.910034] yes=21,no=22,missing=21
				21:leaf=-0.0213712268
				22:leaf=0.0161365978
	2:[f1<21.5] yes=5,no=6,missing=5
		5:[f4<318.5] yes=11,no=12,missing=11
			11:[f13<0.63499999] yes=23,no=24,missing=23
				23:leaf=0.0268141516
				24:leaf=-0.0183363035
			12:[f5<3.5] yes=25,no=26,missing=25
				25:leaf=0.0432185121
				26:leaf=0.110824309
		6:[f12<0.654000044] yes=13,no=14,missing=13
			13:[f1<50.5] yes=27,no=28,missing=27
				27:leaf=0.028554162
				28:leaf=0.0914634764
			14:[f5<7.5] yes=29,no=30,missing=29
				29:leaf=0.0911253765
				30:leaf=-0.0766513571
booster[13]:
0:[f1<4.5] yes=1,no=2,missing=1
	1:[f14<0.904999971] yes=3,no=4,missing=3
		3:[f2<939.789978] yes=7,no=8,missing=7
			7:[f3<8.5] yes=15,no=16,missing=15
				15:leaf=-0.0195431486
				16:leaf=-0.0403317213
			8:[f0<8.5] yes=17,no=18,missing=17
				17:leaf=0.0850683898
				18:leaf=-0.0135593433
		4:[f1<2] yes=9,no=10,missing=9
			9:[f0<320] yes=19,no=20,missing=19
				19:leaf=-0.00288245059
				20:leaf=0.124669746
			10:[f9<0.726499975] yes=21,no=22,missing=21
				21:leaf=0.103123203
				22:leaf=-0.0207355153
	2:[f13<0.435000002] yes=5,no=6,missing=5
		5:[f4<7.5] yes=11,no=12,missing=11
			11:[f1<11.5] yes=23,no=24,missing=23
				23:leaf=-0.00368028739
				24:leaf=0.0776488259
			12:[f5<6.5] yes=25,no=26,missing=25
				25:leaf=0.123488747
				26:leaf=-0.0199812278
		6:[f4<85] yes=13,no=14,missing=13
			13:[f2<3932.48486] yes=27,no=28,missing=27
				27:leaf=-0.00684823981
				28:leaf=0.0488187931
			14:[f0<117] yes=29,no=30,missing=29
				29:leaf=0.0341094695
				30:leaf=0.111709237
booster[14]:
0:[f1<2] yes=1,no=2,missing=1
	1:[f0<8.5] yes=3,no=4,missing=3
		3:[f2<1713.05005] yes=7,no=8,missing=7
			7:[f5<4.5] yes=15,no=16,missing=15
				15:leaf=-0.00313574425
				16:leaf=-0.0893738866
			8:[f12<0.452500015] yes=17,no=18,missing=17
				17:leaf=0.0192087535
				18:leaf=0.102817953
		4:[f2<1195.78003] yes=9,no=10,missing=9
			9:[f13<0.425000012] yes=19,no=20,missing=19
				19:leaf=-0.00857334677
				20:leaf=-0.0371513404
			10:[f2<1206.85498] yes=21,no=22,missing=21
				21:leaf=0.116589449
				22:leaf=-0.00989032909
	2:[f10<127.5] yes=5,no=6,missing=5
		5:[f10<93.5] yes=11,no=12,missing=11
			11:[f13<0.405000001] yes=23,no=24,missing=23
				23:leaf=0.0680314526
				24:leaf=-0.0108118095
			12:[f0<12.5] yes=25,no=26,missing=25
				25:leaf=0.10295029
				26:leaf=0.036558561
		6:[f14<0.414999992] yes=13,no=14,missing=13
			13:[f3<24.5] yes=27,no=28,missing=28
				27:leaf=0.0273745153
				28:leaf=0.107002489
			14:[f2<4250.34473] yes=29,no=30,missing=29
				29:leaf=-0.0215128437
				30:leaf=0.0410017446
booster[15]:
0:[f1<6.5] yes=1,no=2,missing=1
	1:[f4<21.5] yes=3,no=4,missing=3
		3:[f13<0.474999994] yes=7,no=8,missing=7
			7:[f2<702.75] yes=15,no=16,missing=15
				15:leaf=-0.0261124205
				16:leaf=0.0236932468
			8:[f3<11.5] yes=17,no=18,missing=18
				17:leaf=-0.0146328555
				18:leaf=-0.0505668595
		4:[f13<0.425000012] yes=9,no=10,missing=9
			9:[f2<188] yes=19,no=20,missing=19
				19:leaf=0.0140980361
				20:leaf=0.118009783
			10:[f10<120.5] yes=21,no=22,missing=21
				21:leaf=-0.00661313627
				22:leaf=-0.0284553859
	2:[f4<64] yes=5,no=6,missing=5
		5:[f13<0.63499999] yes=11,no=12,missing=11
			11:[f4<12.5] yes=23,no=24,missing=23
				23:leaf=0.0115915863
				24:leaf=0.0497837104
			12:[f2<6825.6748] yes=25,no=26,missing=25
				25:leaf=-0.0506662726
				26:leaf=0.0536337793
		6:[f10<106.5] yes=13,no=14,missing=13
			13:[f9<0.296000004] yes=27,no=28,missing=27
				27:leaf=0.015234937
				28:leaf=0.0891422927
			14:[f13<0.675000012] yes=29,no=30,missing=29
				29:leaf=0.0664441362
				30:leaf=0.00712257251
booster[16]:
0:[f1<2] yes=1,no=2,missing=1
	1:[f2<6399.0752] yes=3,no=4,missing=3
		3:[f4<207.5] yes=7,no=8,missing=7
			7:[f13<0.784999967] yes=15,no=16,missing=15
				15:leaf=-0.0236545708
				16:leaf=-0.0538082011
			8:[f5<2.5] yes=17,no=18,missing=17
				17:leaf=-0.0714798868
				18:leaf=-0.00586715108
		4:[f12<0.379000008] yes=9,no=10,missing=9
			9:leaf=0.120900095
			10:[f12<0.681500018] yes=21,no=22,missing=21
				21:leaf=-0.0399697945
				22:leaf=0.0672131106
	2:[f1<27.5] yes=5,no=6,missing=5
		5:[f4<318.5] yes=11,no=12,missing=11
			11:[f13<0.63499999] yes=23,no=24,missing=23
				23:leaf=0.021617962
				24:leaf=-0.0172411818
			12:[f5<3.5] yes=25,no=26,missing=25
				25:leaf=0.0331133232
				26:leaf=0.100604348
		6:[f12<0.436500013] yes=13,no=14,missing=13
			13:[f13<0.644999981] yes=27,no=28,missing=27
				27:leaf=0.0624816231
				28:leaf=-0.0379237123
			14:[f5<5.5] yes=29,no=30,missing=29
				29:leaf=0.0857134908
				30:leaf=-0.0137565425
booster[17]:
0:[f1<4.5] yes=1,no=2,missing=1
	1:[f4<36.5] yes=3,no=4,missing=3
		3:[f13<0.454999983] yes=7,no=8,missing=7
			7:[f4<7.5] yes=15,no=16,missing=15
				15:leaf=-0.0321077369
				16:leaf=0.0172886215
			8:[f12<0.60650003] yes=17,no=18,missing=17
				17:leaf=-0.0530048124
				18:leaf=-0.0256040748
		4:[f2<1187.26001] yes=9,no=10,missing=9
			9:[f13<0.764999986] yes=19,no=20,missing=19
				19:leaf=-0.00936922245
				20:leaf=-0.0405442268
			10:[f10<186] yes=21,no=22,missing=21
				21:leaf=0.0145210018
				22:leaf=-0.0710842386
	2:[f13<0.375] yes=5,no=6,missing=5
		5:[f4<2.5] yes=11,no=12,missing=11
			11:[f2<845.679993] yes=23,no=24,missing=23
				23:leaf=-0.00142547244
				24:leaf=0.102953158
			12:[f6<3] yes=25,no=26,missing=25
				25:leaf=0.11144489
				26:leaf=-0.0188313387
		6:[f2<4464.91016] yes=13,no=14,missing=13
			13:[f4<318.5] yes=27,no=28,missing=27
				27:leaf=0.00298446161
				28:leaf=0.0618931428
			14:[f4<170.5] yes=29,no=30,missing=29
				29:leaf=0.0414116941
				30:leaf=0.092825748
booster[18]:
0:[f1<6.5] yes=1,no=2,missing=1
	1:[f5<5.5] yes=3,no=4,missing=3
		3:[f13<0.474999994] yes=7,no=8,missing=7
			7:[f4<13.5] yes=15,no=16,missing=15
				15:leaf=-0.0165812653
				16:leaf=0.0237878915
			8:[f12<0.689499974] yes=17,no=18,missing=17
				17:leaf=-0.0292575955
				18:leaf=-0.00792695396
		4:[f9<0.592499971] yes=9,no=10,missing=9
			9:[f7<-29] yes=19,no=20,missing=19
				19:leaf=0.108511485
				20:leaf=-0.064258568
			10:[f2<202.5] yes=21,no=22,missing=21
				21:leaf=0.0552487746
				22:leaf=-0.0207081158
	2:[f4<64] yes=5,no=6,missing=5
		5:[f13<0.63499999] yes=11,no=12,missing=11
			11:[f4<12.5] yes=23,no=24,missing=23
				23:leaf=0.00613793312
				24:leaf=0.0421076827
			12:[f4<39.5] yes=25,no=26,missing=25
				25:leaf=-0.00311968406
				26:leaf=-0.0713309273
		6:[f13<0.625] yes=13,no=14,missing=13
			13:[f9<0.32949999] yes=27,no=28,missing=27
				27:leaf=0.0300035812
				28:leaf=0.0877207145
			14:[f7<-6.5] yes=29,no=30,missing=29
				29:leaf=-0.00642029895
				30:leaf=0.0462513193
booster[19]:
0:[f1<2] yes=1,no=2,missing=1
	1:[f2<4899.4502] yes=3,no=4,missing=3
		3:[f3<8.5] yes=7,no=8,missing=7
			7:[f5<5.5] yes=15,no=16,missing=15
				15:leaf=-0.0038182498
				16:leaf=-0.0630015433
			8:[f13<0.784999967] yes=17,no=18,missing=17
				17:leaf=-0.0189661756
				18:leaf=-0.0429402776
		4:[f3<94] yes=9,no=10,missing=10
			9:[f14<0.564999998] yes=19,no=20,missing=20
				19:leaf=-0.0508745573
				20:leaf=0.0542932563
			10:[f9<0.511999965] yes=21,no=22,missing=21
				21:leaf=-0.121093869
				22:leaf=0.000200021415
	2:[f10<127.5] yes=5,no=6,missing=5
		5:[f5<6.5] yes=11,no=12,missing=11
			11:[f0<12.5] yes=23,no=24,missing=23
				23:leaf=0.0762902424
				24:leaf=0.0247189533
			12:[f4<32] yes=25,no=26,missing=25
				25:leaf=-0.111367881
				26:leaf=0.0133693023
		6:[f14<0.414999992] yes=13,no=14,missing=13
			13:[f3<26.5] yes=27,no=28,missing=28
				27:leaf=0.0279760938
				28:leaf=0.107161283
			14:[f2<3891.93018] yes=29,no=30,missing=29
				29:leaf=-0.0211587939
				30:leaf=0.0278574657
booster[20]:
0:[f1<8.5] yes=1,no=2,missing=1
	1:[f4<13.5] yes=3,no=4,missing=3
		3:[f3<11.5] yes=7,no=8,missing=7
			7:[f9<0.668500006] yes=15,no=16,missing=15
				15:leaf=-0.00160025083
				16:leaf=-0.0655569732
			8:[f9<0.786499977] yes=17,no=18,missing=17
				17:leaf=-0.038932208
				18:leaf=0.0202120207
		4:[f13<0.425000012] yes=9,no=10,missing=9
			9:[f2<188] yes=19,no=20,missing=19
				19:leaf=0.0113973496
				20:leaf=0.109908879
			10:[f5<4.5] yes=21,no=22,missing=21
				21:leaf=-0.00533976406
				22:leaf=-0.0299949087
	2:[f13<0.504999995] yes=5,no=6,missing=5
		5:[f4<13.5] yes=11,no=12,missing=11
			11:[f10<93.5] yes=23,no=24,missing=23
				23:leaf=-0.0435689054
				24:leaf=0.0476105474
			12:leaf=0.107981525
		6:[f4<64] yes=13,no=14,missing=13
			13:[f0<382.5] yes=27,no=28,missing=27
				27:leaf=-0.0112260925
				28:leaf=0.0586706884
			14:[f10<106] yes=29,no=30,missing=29
				29:leaf=0.071003221
				30:leaf=0.0238525309
booster[21]:
0:[f1<2] yes=1,no=2,missing=1
	1:[f2<1195.78003] yes=3,no=4,missing=3
		3:[f3<35.5] yes=7,no=8,missing=7
			7:[f13<0.784999967] yes=15,no=16,missing=15
				15:leaf=-0.0120310141
				16:leaf=-0.0355224423
			8:[f2<611.680054] yes=17,no=18,missing=17
				17:leaf=-0.0593080781
				18:leaf=0.0108110923
		4:[f2<1206.85498] yes=9,no=10,missing=9
			9:[f7<-7.5] yes=19,no=20,missing=19
				19:leaf=-0.0902044177
				20:leaf=0.205709293
			10:[f3<26.5] yes=21,no=22,missing=21
				21:leaf=-0.00308789779
				22:leaf=0.037367288
	2:[f13<0.36500001] yes=5,no=6,missing=5
		5:[f4<2.5] yes=11,no=12,missing=11
			11:[f14<0.215000004] yes=23,no=24,missing=24
				23:leaf=-0.0520536378
				24:leaf=0.0534234717
			12:[f9<0.638499975] yes=25,no=26,missing=25
				25:leaf=0.120738469
				26:leaf=0.0345837288
		6:[f4<5.5] yes=13,no=14,missing=13
			13:[f3<40.5] yes=27,no=28,missing=28
				27:leaf=-0.0432982482
				28:leaf=0.0325968266
			14:[f13<0.534999967] yes=29,no=30,missing=29
				29:leaf=0.0508356467
				30:leaf=0.00757512543
booster[22]:
0:[f1<8.5] yes=1,no=2,missing=1
	1:[f4<33.5] yes=3,no=4,missing=3
		3:[f13<0.454999983] yes=7,no=8,missing=7
			7:[f4<7.5] yes=15,no=16,missing=15
				15:leaf=-0.0215147343
				16:leaf=0.024771627
			8:[f10<127.5] yes=17,no=18,missing=17
				17:leaf=-0.0178549886
				18:leaf=-0.0412372723
		4:[f0<439.5] yes=9,no=10,missing=9
			9:[f5<4.5] yes=19,no=20,missing=19
				19:leaf=0.00132281182
				20:leaf=-0.0223113764
			10:[f2<156.794998] yes=21,no=22,missing=21
				21:leaf=-0.0563690364
				22:leaf=-0.141935632
	2:[f1<51.5] yes=5,no=6,missing=5
		5:[f13<0.63499999] yes=11,no=12,missing=11
			11:[f4<12.5] yes=23,no=24,missing=23
				23:leaf=0.00489710737
				24:leaf=0.0488765165
			12:[f10<127.5] yes=25,no=26,missing=25
				25:leaf=0.0239902027
				26:leaf=-0.0350252092
		6:[f12<0.305000007] yes=13,no=14,missing=13
			13:[f2<12863] yes=27,no=28,missing=27
				27:leaf=0.0875557438
				28:leaf=-0.0668560416
			14:leaf=0.0927763283
booster[23]:
0:[f1<2] yes=1,no=2,missing=1
	1:[f2<585.109985] yes=3,no=4,missing=3
		3:[f3<10.5] yes=7,no=8,missing=7
			7:[f9<0.560500026] yes=15,no=16,missing=15
				15:leaf=0.000772020721
				16:leaf=-0.0356848948
			8:[f9<0.649500012] yes=17,no=18,missing=17
				17:leaf=-0.0313727707
				18:leaf=0.00469421316
		4:[f10<127.5] yes=9,no=10,missing=9
			9:[f9<0.313499987] yes=19,no=20,missing=19
				19:leaf=-0.0449204408
				20:leaf=0.0192739721
			10:[f3<18.5] yes=21,no=22,missing=21
				21:leaf=-0.02977941
				22:leaf=0.0178304296
	2:[f0<6.5] yes=5,no=6,missing=5
		5:[f0<2.5] yes=11,no=12,missing=11
			11:[f1<22] yes=23,no=24,missing=23
				23:leaf=0.033956673
				24:leaf=-0.0580185317
			12:leaf=0.0999521986
		6:[f1<21.5] yes=13,no=14,missing=13
			13:[f3<23.5] yes=27,no=28,missing=28
				27:leaf=-0.00657446031
				28:leaf=0.0225155111
			14:[f12<0.654000044] yes=29,no=30,missing=29
				29:leaf=0.0225014277
				30:leaf=0.0661165491
booster[24]:
0:[f2<4861.74512] yes=1,no=2,missing=1
	1:[f1<2] yes=3,no=4,missing=3
		3:[f3<35.5] yes=7,no=8,missing=7
			7:[f13<0.784999967] yes=15,no=16,missing=15
				15:leaf=-0.00725806458
				16:leaf=-0.0264825467
			8:[f2<611.680054] yes=17,no=18,missing=17
				17:leaf=-0.0526514426
				18:leaf=-0.00152021355
		4:[f2<104.779999] yes=9,no=10,missing=9
			9:[f9<0.489000022] yes=19,no=20,missing=19
				19:leaf=0.0520785823
				20:leaf=0.00837099645
			10:[f2<374.5] yes=21,no=22,missing=21
				21:leaf=-0.133531064
				22:leaf=-0.000291525997
	2:[f12<0.630500019] yes=5,no=6,missing=5
		5:[f1<49.5] yes=11,no=12,missing=11
			11:[f12<0.385999978] yes=23,no=24,missing=23
				23:leaf=0.0326113962
				24:leaf=-0.0178695787
			12:[f12<0.305000007] yes=25,no=26,missing=25
				25:leaf=0.0110939024
				26:leaf=0.103151463
		6:[f2<9688] yes=13,no=14,missing=13
			13:[f2<5698.27979] yes=27,no=28,missing=27
				27:leaf=0.0863674283
				28:leaf=0.0262439232
			14:[f3<20.5] yes=29,no=30,missing=29
				29:leaf=0.101887859
				30:leaf=0.0218869504
booster[25]:
0:[f2<3285.625] yes=1,no=2,missing=1
	1:[f5<6.5] yes=3,no=4,missing=3
		3:[f1<2] yes=7,no=8,missing=7
			7:[f9<0.783499956] yes=13,no=14,missing=13
				13:leaf=-0.00904978625
				14:leaf=-0.0498159043
			8:[f2<104.779999] yes=15,no=16,missing=15
				15:leaf=0.0277397931
				16:leaf=-0.00320588285
		4:[f9<0.597000003] yes=9,no=10,missing=9
			9:[f14<0.519999981] yes=17,no=18,missing=18
				17:leaf=-0.000284283597
				18:leaf=-0.0834942833
			10:[f1<2] yes=19,no=20,missing=19
				19:leaf=0.0535455607
				20:leaf=-0.0479643904
	2:[f3<8.5] yes=5,no=6,missing=6
		5:leaf=0.116913222
		6:[f3<26.5] yes=11,no=12,missing=11
			11:[f1<54.5] yes=21,no=22,missing=21
				21:leaf=0.0110945171
				22:leaf=0.0831860527
			12:leaf=0.0842344165
booster[26]:
0:[f1<8.5] yes=1,no=2,missing=1
	1:[f10<114.5] yes=3,no=4,missing=3
		3:[f2<1187.26001] yes=7,no=8,missing=7
			7:[f6<4.5] yes=15,no=16,missing=15
				15:leaf=-0.00823793374
				16:leaf=0.0154902609
			8:[f14<0.754999995] yes=17,no=18,missing=17
				17:leaf=0.0058223051
				18:leaf=0.0534108281
		4:[f11<4.5] yes=9,no=10,missing=9
			9:[f13<0.845000029] yes=19,no=20,missing=19
				19:leaf=-0.00663618976
				20:leaf=-0.0638688728
			10:[f13<0.75999999] yes=21,no=22,missing=21
				21:leaf=-0.071178481
				22:leaf=0.0267323889
	2:[f13<0.474999994] yes=5,no=6,missing=5
		5:[f4<16.5] yes=11,no=12,missing=11
			11:[f2<1492.5] yes=23,no=24,missing=23
				23:leaf=-0.00354903075
				24:leaf=0.0734759569
			12:[f14<0.715000033] yes=25,no=26,missing=25
				25:leaf=0.106025599
				26:leaf=-0.0136026386
		6:[f4<64] yes=13,no=14,missing=13
			13:[f0<233] yes=27,no=28,missing=27
				27:leaf=-0.0203043073
				28:leaf=0.0271768104
			14:[f13<0.675000012] yes=29,no=30,missing=29
				29:leaf=0.0589949377
				30:leaf=0.0113606034
booster[27]:
0:[f2<4861.74512] yes=1,no=2,missing=1
	1:[f9<0.951499999] yes=3,no=4,missing=3
		3:[f1<2] yes=7,no=8,missing=7
			7:[f5<5.5] yes=15,no=16,missing=15
				15:leaf=-0.00712250313
				16:leaf=-0.0345700495
			8:[f14<0.425000012] yes=17,no=18,missing=17
				17:leaf=0.0379679911
				18:leaf=0.000503484451
		4:leaf=-0.097909607
	2:[f4<170.5] yes=5,no=6,missing=5
		5:[f13<0.454999983] yes=11,no=12,missing=11
			11:leaf=0.0931143388
			12:[f3<24.5] yes=25,no=26,missing=25
				25:leaf=0.0102885906
				26:leaf=0.0735513121
		6:[f10<116] yes=13,no=14,missing=13
			13:leaf=0.103431635
			14:[f1<13.5] yes=27,no=28,missing=27
				27:leaf=0.00367925316
				28:leaf=0.0798207521
booster[28]:
0:[f2<4861.74512] yes=1,no=2,missing=1
	1:[f4<318.5] yes=3,no=4,missing=3
		3:[f13<0.665000021] yes=7,no=8,missing=7
			7:[f4<21.5] yes=15,no=16,missing=15
				15:leaf=-0.0148477554
				16:leaf=0.00694163749
			8:[f14<0.694999993] yes=17,no=18,missing=18
				17:leaf=0.00588827534
				18:leaf=-0.0334898904
		4:[f2<280.5] yes=9,no=10,missing=9
			9:[f5<3.5] yes=19,no=20,missing=19
				19:leaf=-0.0121007254
				20:leaf=0.0154986773
			10:[f4<405.5] yes=21,no=22,missing=21
				21:leaf=0.0252575185
				22:leaf=0.106470324
	2:[f12<0.630500019] yes=5,no=6,missing=5
		5:[f1<49.5] yes=11,no=12,missing=11
			11:[f12<0.385999978] yes=23,no=24,missing=23
				23:leaf=0.0252150651
				24:leaf=-0.0209071599
			12:[f12<0.305000007] yes=25,no=26,missing=25
				25:leaf=0.00126108935
				26:leaf=0.0979075655
		6:[f2<9688] yes=13,no=14,missing=13
			13:[f2<5733.79492] yes=27,no=28,missing=27
				27:leaf=0.0749714375
				28:leaf=0.0176079813
			14:[f3<20.5] yes=29,no=30,missing=29
				29:leaf=0.0947296992
				30:leaf=0.0134106148
booster[29]:
0:[f2<1485.15991] yes=1,no=2,missing=1
	1:[f13<0.435000002] yes=3,no=4,missing=3
		3:[f4<7.5] yes=7,no=8,missing=7
			7:[f9<0.559499979] yes=15,no=16,missing=15
				15:leaf=0.00082547561
				16:leaf=-0.0443323813
			8:[f1<2] yes=17,no=18,missing=17
				17:leaf=0.0153194861
				18:leaf=0.0959701836
		4:[f4<318.5] yes=9,no=10,missing=9
			9:[f13<0.63499999] yes=19,no=20,missing=19
				19:leaf=-0.00774932373
				20:leaf=-0.0293144435
			10:[f2<280.5] yes=21,no=22,missing=21
				21:leaf=0.00261397474
				22:leaf=0.0410484225
	2:[f14<0.824999988] yes=5,no=6,missing=6
		5:[f10<121.5] yes=11,no=12,missing=11
			11:[f7<-4.5] yes=23,no=24,missing=23
				23:leaf=0.00488106301
				24:leaf=0.0524785891
			12:[f12<0.333000004] yes=25,no=26,missing=25
				25:leaf=0.0171610117
				26:leaf=-0.0227621701
		6:[f4<87.5] yes=13,no=14,missing=13
			13:[f1<2] yes=27,no=28,missing=27
				27:leaf=-0.0311262049
				28:leaf=0.0335301533
			14:[f2<2079.5] yes=29,no=30,missing=29
				29:leaf=0.0750327036
				30:leaf=0.0355390869
booster[30]:
0:[f1<15.5] yes=1,no=2,missing=1
	1:[f10<114.5] yes=3,no=4,missing=3
		3:[f10<83.5] yes=7,no=8,missing=7
			7:[f12<0.794999957] yes=15,no=16,missing=15
				15:leaf=-0.0500838757
				16:leaf=0.0583375469
			8:[f2<1466.96997] yes=17,no=18,missing=17
				17:leaf=0.00129719812
				18:leaf=0.0234181527
		4:[f11<4.5] yes=9,no=10,missing=9
			9:[f13<0.845000029] yes=19,no=20,missing=19
				19:leaf=-0.0037346785
				20:leaf=-0.0557676964
			10:[f14<0.474999994] yes=21,no=22,missing=22
				21:leaf=0.0363619104
				22:leaf=-0.06153173
	2:[f14<0.324999988] yes=5,no=6,missing=5
		5:[f10<94.5] yes=11,no=12,missing=11
			11:[f1<31.5] yes=23,no=24,missing=23
				23:leaf=-0.0379084609
				24:leaf=0.0702554211
			12:[f7<-18.5] yes=25,no=26,missing=25
				25:leaf=-0.0144514609
				26:leaf=0.101142906
		6:[f4<83.5] yes=13,no=14,missing=13
			13:[f3<8.5] yes=27,no=28,missing=27
				27:leaf=0.0663674474
				28:leaf=-0.00907082949
			14:[f13<0.745000005] yes=29,no=30,missing=29
				29:leaf=0.0724430904
				30:leaf=0.0248799939
booster[31]:
0:[f2<3285.625] yes=1,no=2,missing=1
	1:[f5<6.5] yes=3,no=4,missing=3
		3:[f13<0.474999994] yes=7,no=8,missing=7
			7:[f4<13.5] yes=15,no=16,missing=15
				15:leaf=-0.00589756994
				16:leaf=0.0264763534
			8:[f12<0.707000017] yes=17,no=18,missing=17
				17:leaf=-0.0168896746
				18:leaf=0.00133909914
		4:[f9<0.597000003] yes=9,no=10,missing=9
			9:[f14<0.519999981] yes=19,no=20,missing=20
				19:leaf=0.00539726345
				20:leaf=-0.0739042163
			10:[f1<2] yes=21,no=22,missing=21
				21:leaf=0.0546640046
				22:leaf=-0.0413319468
	2:[f3<32.5] yes=5,no=6,missing=5
		5:[f3<8.5] yes=11,no=12,missing=12
			11:leaf=0.106349945
			12:[f1<13.5] yes=23,no=24,missing=23
				23:leaf=-0.00145354238
				24:leaf=0.0296780653
		6:[f10<117.5] yes=13,no=14,missing=13
			13:leaf=0.0156149063
			14:[f13<0.425000012] yes=27,no=28,missing=27
				27:leaf=-0.0309691262
				28:leaf=0.11916025
booster[32]:
0:[f1<2] yes=1,no=2,missing=1
	1:[f2<518.119995] yes=3,no=4,missing=3
		3:[f3<29.5] yes=7,no=8,missing=7
			7:[f13<0.784999967] yes=15,no=16,missing=15
				15:leaf=-0.00426242175
				16:leaf=-0.0316513255
			8:[f2<193.070007] yes=17,no=18,missing=17
				17:leaf=-0.0410361104
				18:leaf=-0.0062020137
		4:[f13<0.965000033] yes=9,no=10,missing=9
			9:[f13<0.879999995] yes=19,no=20,missing=19
				19:leaf=0.00439250842
				20:leaf=-0.0564154871
			10:[f2<807.51001] yes=21,no=22,missing=21
				21:leaf=0.149538189
				22:leaf=0.04622088
	2:[f13<0.36500001] yes=5,no=6,missing=5
		5:[f4<2.5] yes=11,no=12,missing=11
			11:[f14<0.215000004] yes=23,no=24,missing=24
				23:leaf=-0.0499895476
				24:leaf=0.0459049009
			12:[f9<0.638499975] yes=25,no=26,missing=25
				25:leaf=0.113042176
				26:leaf=0.0236255284
		6:[f4<5.5] yes=13,no=14,missing=13
			13:[f0<463.5] yes=27,no=28,missing=27
				27:leaf=-0.0517633557
				28:leaf=-0.000783374708
			14:[f13<0.545000017] yes=29,no=30,missing=29
				29:leaf=0.0392619222
				30:leaf=0.00236905017
booster[33]:
0:[f1<27.5] yes=1,no=2,missing=1
	1:[f4<47.5] yes=3,no=4,missing=3
		3:[f13<0.344999999] yes=7,no=8,missing=7
			7:[f0<186] yes=15,no=16,missing=15
				15:leaf=0.113973357
				16:leaf=0.0186886471
			8:[f0<185.5] yes=17,no=18,missing=17
				17:leaf=-0.0213583373
				18:leaf=-0.00350645627
		4:[f12<0.126000002] yes=9,no=10,missing=9
			9:[f14<0.689999998] yes=19,no=20,missing=20
				19:leaf=0.071837686
				20:leaf=0.0180242658
			10:[f5<4.5] yes=21,no=22,missing=21
				21:leaf=0.00334058143
				22:leaf=-0.025579242
	2:[f12<0.436500013] yes=5,no=6,missing=5
		5:[f13<0.584999979] yes=11,no=12,missing=11
			11:[f4<16.5] yes=23,no=24,missing=23
				23:leaf=-0.0205486659
				24:leaf=0.102959074
			12:[f1<76] yes=25,no=26,missing=25
				25:leaf=-0.0597598366
				26:leaf=0.0527563393
		6:[f7<-7.5] yes=13,no=14,missing=13
			13:[f2<9560.28516] yes=27,no=28,missing=27
				27:leaf=-0.0478767902
				28:leaf=0.0900082886
			14:[f5<5.5] yes=29,no=30,missing=29
				29:leaf=0.0752552673
				30:leaf=-0.0429142304
booster[34]:
0:[f2<1188.83008] yes=1,no=2,missing=1
	1:[f2<1100.18994] yes=3,no=4,missing=3
		3:[f1<7.5] yes=7,no=8,missing=7
			7:[f4<21.5] yes=15,no=16,missing=15
				15:leaf=-0.0157565251
				16:leaf=-0.00224873493
			8:[f9<0.501999974] yes=17,no=18,missing=17
				17:leaf=0.0414078236
				18:leaf=0.00233866437
		4:[f12<0.787] yes=9,no=10,missing=9
			9:[f13<0.555000007] yes=19,no=20,missing=19
				19:leaf=0.000352627831
				20:leaf=-0.126274958
			10:[f3<26] yes=21,no=22,missing=22
				21:leaf=-0.0156216295
				22:leaf=0.125063941
	2:[f10<127.5] yes=5,no=6,missing=5
		5:[f6<5.5] yes=11,no=12,missing=11
			11:[f5<2.5] yes=23,no=24,missing=23
				23:leaf=-0.0282272529
				24:leaf=0.0263820346
			12:[f1<12.5] yes=25,no=26,missing=25
				25:leaf=-0.1352496
				26:leaf=0.0726015791
		6:[f3<21.5] yes=13,no=14,missing=13
			13:[f4<5.5] yes=27,no=28,missing=27
				27:leaf=-0.0750496313
				28:leaf=-0.007849738
			14:[f9<0.631000042] yes=29,no=30,missing=29
				29:leaf=0.0146654863
				30:leaf=0.0801802576
booster[35]:
0:[f2<4861.74512] yes=1,no=2,missing=1
	1:[f9<0.951499999] yes=3,no=4,missing=3
		3:[f13<0.435000002] yes=7,no=8,missing=7
			7:[f2<189.300003] yes=15,no=16,missing=15
				15:leaf=0.0014868686
				16:leaf=0.0403200239
			8:[f4<48.5] yes=17,no=18,missing=17
				17:leaf=-0.0132715749
				18:leaf=0.001796489
		4:leaf=-0.0885844752
	2:[f4<170.5] yes=5,no=6,missing=5
		5:[f13<0.665000021] yes=11,no=12,missing=11
			11:[f7<-7.5] yes=23,no=24,missing=23
				23:leaf=0.0669841841
				24:leaf=0.0115578584
			12:[f0<90.5] yes=25,no=26,missing=25
				25:leaf=-0.0270230919
				26:leaf=0.0363519602
		6:[f10<116] yes=13,no=14,missing=13
			13:leaf=0.0896658823
			14:[f2<6748.2251] yes=29,no=30,missing=29
				29:leaf=-0.0093128616
				30:leaf=0.060089834
booster[36]:
0:[f1<2] yes=1,no=2,missing=1
	1:[f3<35.5] yes=3,no=4,missing=3
		3:[f11<6] yes=7,no=8,missing=7
			7:[f10<209.5] yes=13,no=14,missing=13
				13:leaf=-0.0034051016
				14:leaf=0.0726776347
			8:[f13<0.564999998] yes=15,no=16,missing=15
				15:leaf=-0.0676065162
				16:leaf=0.036558684
		4:[f5<5.5] yes=9,no=10,missing=9
			9:[f2<611.680054] yes=17,no=18,missing=17
				17:leaf=-0.0369803943
				18:leaf=0.0113712056
			10:leaf=-0.112318516
	2:[f4<1050] yes=5,no=6,missing=5
		5:[f14<0.425000012] yes=11,no=12,missing=11
			11:[f3<24.5] yes=19,no=20,missing=20
				19:leaf=0.00301596359
				20:leaf=0.0664667487
			12:[f10<127.5] yes=21,no=22,missing=21
				21:leaf=0.0105934618
				22:leaf=-0.0118742874
		6:leaf=0.10306406
booster[37]:
0:[f1<51.5] yes=1,no=2,missing=1
	1:[f9<0.951499999] yes=3,no=4,missing=3
		3:[f4<13.5] yes=7,no=8,missing=7
			7:[f3<10.5] yes=15,no=16,missing=15
				15:leaf=0.00383433374
				16:leaf=-0.0188856348
			8:[f13<0.514999986] yes=17,no=18,missing=17
				17:leaf=0.0192374401
				18:leaf=-0.0016609825
		4:[f2<4171.75] yes=9,no=10,missing=9
			9:leaf=-0.0859799087
			10:leaf=0.0327025466
	2:[f3<23.5] yes=5,no=6,missing=5
		5:[f2<16095.3203] yes=11,no=12,missing=11
			11:leaf=0.0830412582
			12:[f2<18266.7813] yes=23,no=24,missing=23
				23:leaf=-0.0922766179
				24:leaf=0.0715568736
		6:leaf=-0.0082544433
booster[38]:
0:[f2<1398.92993] yes=1,no=2,missing=1
	1:[f5<6.5] yes=3,no=4,missing=3
		3:[f2<1366.5] yes=7,no=8,missing=7
			7:[f12<0.539000034] yes=15,no=16,missing=15
				15:leaf=-0.0108075626
				16:leaf=0.00162035937
			8:[f3<27.5] yes=17,no=18,missing=17
				17:leaf=-0.0975187048
				18:leaf=0.0630677938
		4:[f2<101.5] yes=9,no=10,missing=9
			9:[f9<0.649500012] yes=19,no=20,missing=19
				19:leaf=-0.0323341452
				20:leaf=0.101381041
			10:[f13<0.444999993] yes=21,no=22,missing=21
				21:leaf=0.0259347055
				22:leaf=-0.085469611
	2:[f13<0.474999994] yes=5,no=6,missing=5
		5:[f0<67.5] yes=11,no=12,missing=11
			11:[f0<24.5] yes=23,no=24,missing=23
				23:leaf=0.0301867463
				24:leaf=-0.110292248
			12:[f13<0.38499999] yes=25,no=26,missing=25
				25:leaf=0.123005681
				26:leaf=0.0392637402
		6:[f14<0.824999988] yes=13,no=14,missing=13
			13:[f7<-5.5] yes=27,no=28,missing=27
				27:leaf=-0.0155866919
				28:leaf=0.0129589336
			14:[f0<196.5] yes=29,no=30,missing=29
				29:leaf=0.0376967564
				30:leaf=-0.0532287955
booster[39]:
0:[f1<2] yes=1,no=2,missing=1
	1:[f2<518.119995] yes=3,no=4,missing=3
		3:[f3<29.5] yes=7,no=8,missing=7
			7:[f13<0.784999967] yes=13,no=14,missing=13
				13:leaf=-0.00254756189
				14:leaf=-0.0282516088
			8:[f2<193.070007] yes=15,no=16,missing=15
				15:leaf=-0.0346474312
				16:leaf=-0.00238529476
		4:[f2<522.52002] yes=9,no=10,missing=9
			9:leaf=0.172064319
			10:[f12<0.0324999988] yes=17,no=18,missing=17
				17:leaf=-0.0288698655
				18:leaf=0.0066613378
	2:[f4<1050] yes=5,no=6,missing=5
		5:[f13<0.675000012] yes=11,no=12,missing=11
			11:[f4<56.5] yes=19,no=20,missing=19
				19:leaf=0.00122755102
				20:leaf=0.0393684879
			12:[f13<0.689999998] yes=21,no=22,missing=21
				21:leaf=-0.0530223921
				22:leaf=0.000578718376
		6:leaf=0.101390317
booster[40]:
0:[f1<15.5] yes=1,no=2,missing=1
	1:[f0<12.5] yes=3,no=4,missing=3
		3:[f2<365.040009] yes=7,no=8,missing=7
			7:[f2<101] yes=15,no=16,missing=15
				15:leaf=0.00605930667
				16:leaf=-0.0643243715
			8:[f12<0.914499998] yes=17,no=18,missing=17
				17:leaf=0.00261020428
				18:leaf=0.105216876
		4:[f0<13.5] yes=9,no=10,missing=9
			9:[f2<3028.34009] yes=19,no=20,missing=19
				19:leaf=-0.108785152
				20:leaf=0.0218346138
			10:[f13<0.335000008] yes=21,no=22,missing=21
				21:leaf=0.0379581898
				22:leaf=-0.0041656238
	2:[f14<0.324999988] yes=5,no=6,missing=5
		5:[f9<0.789499998] yes=11,no=12,missing=11
			11:[f7<-18.5] yes=23,no=24,missing=23
				23:leaf=-0.0141798584
				24:leaf=0.0916186422
			12:leaf=-0.00706986431
		6:[f4<85] yes=13,no=14,missing=13
			13:[f3<8.5] yes=27,no=28,missing=27
				27:leaf=0.0575786047
				28:leaf=-0.0110555328
			14:[f13<0.745000005] yes=29,no=30,missing=29
				29:leaf=0.0643091351
				30:leaf=0.0164585765
booster[41]:
0:[f1<51.5] yes=1,no=2,missing=1
	1:[f9<0.951499999] yes=3,no=4,missing=3
		3:[f4<13.5] yes=7,no=8,missing=7
			7:[f14<0.915000021] yes=15,no=16,missing=15
				15:leaf=-0.0103053255
				16:leaf=0.128321916
			8:[f13<0.514999986] yes=17,no=18,missing=17
				17:leaf=0.0178970825
				18:leaf=-0.00140167715
		4:[f2<4171.75] yes=9,no=10,missing=9
			9:leaf=-0.0803620666
			10:leaf=0.0303092096
	2:[f12<0.305000007] yes=5,no=6,missing=5
		5:[f12<0.131999999] yes=11,no=12,missing=11
			11:leaf=0.0610550828
			12:leaf=-0.103331409
		6:[f10<104.5] yes=13,no=14,missing=13
			13:[f0<72] yes=23,no=24,missing=23
				23:leaf=-0.0776425526
				24:leaf=0.0644030496
			14:[f7<-9.5] yes=25,no=26,missing=25
				25:leaf=-0.000965194951
				26:leaf=0.102629781
booster[42]:
0:[f2<6392.08496] yes=1,no=2,missing=1
	1:[f13<0.879999995] yes=3,no=4,missing=3
		3:[f0<38.5] yes=7,no=8,missing=7
			7:[f1<2] yes=15,no=16,missing=15
				15:leaf=0.00104184658
				16:leaf=0.037029855
			8:[f3<17.5] yes=17,no=18,missing=18
				17:leaf=-0.0145223457
				18:leaf=0.00332972081
		4:[f13<0.965000033] yes=9,no=10,missing=9
			9:[f8<0.5] yes=19,no=20,missing=19
				19:leaf=-0.0335909948
				20:leaf=-0.0751094073
			10:[f2<515.839966] yes=21,no=22,missing=21
				21:leaf=-0.00552693149
				22:leaf=0.0490644686
	2:[f5<4.5] yes=5,no=6,missing=5
		5:[f10<155.5] yes=11,no=12,missing=11
			11:[f9<0.284500003] yes=23,no=24,missing=23
				23:leaf=-0.0192254614
				24:leaf=0.0604025424
			12:[f0<94] yes=25,no=26,missing=25
				25:leaf=0.0547010973
				26:leaf=-0.057082992
		6:[f9<0.436999977] yes=13,no=14,missing=13
			13:[f2<7639.11035] yes=27,no=28,missing=27
				27:leaf=0.0824363232
				28:leaf=0.00188875466
			14:[f6<4] yes=29,no=30,missing=29
				29:leaf=-0.0560604334
				30:leaf=0.0802461281
booster[43]:
0:[f2<1188.83008] yes=1,no=2,missing=1
	1:[f2<1128.04004] yes=3,no=4,missing=3
		3:[f1<7.5] yes=7,no=8,missing=7
			7:[f2<1124.80005] yes=15,no=16,missing=15
				15:leaf=-0.00435966207
				16:leaf=0.135623828
			8:[f2<179.220001] yes=17,no=18,missing=17
				17:leaf=0.0287627522
				18:leaf=-0.0167719144
		4:[f10<172] yes=9,no=10,missing=9
			9:[f12<0.569000006] yes=19,no=20,missing=19
				19:leaf=-0.12324363
				20:leaf=-0.0381631963
			10:[f13<0.600000024] yes=21,no=22,missing=21
				21:leaf=0.116661981
				22:leaf=-0.0309523772
	2:[f3<26.5] yes=5,no=6,missing=5
		5:[f13<0.485000014] yes=11,no=12,missing=11
			11:[f3<10.5] yes=23,no=24,missing=24
				23:leaf=0.105803169
				24:leaf=0.0292187631
			12:[f13<0.545000017] yes=25,no=26,missing=25
				25:leaf=-0.0373884104
				26:leaf=0.00477616023
		6:[f4<2.5] yes=13,no=14,missing=13
			13:[f13<0.394999981] yes=27,no=28,missing=27
				27:leaf=0.0766814873
				28:leaf=-0.087462604
			14:[f2<1407.91992] yes=29,no=30,missing=29
				29:leaf=0.0920683667
				30:leaf=0.0329744741
booster[44]:
0:[f10<127.5] yes=1,no=2,missing=1
	1:[f2<712.89502] yes=3,no=4,missing=3
		3:[f2<635.625] yes=7,no=8,missing=7
			7:[f1<2] yes=15,no=16,missing=15
				15:leaf=-0.00468668342
				16:leaf=0.0179917868
			8:[f4<12.5] yes=17,no=18,missing=17
				17:leaf=-0.131740078
				18:leaf=-0.0216589682
		4:[f6<4.5] yes=9,no=10,missing=9
			9:[f5<2.5] yes=19,no=20,missing=19
				19:leaf=-0.031084612
				20:leaf=0.0188892409
			10:[f2<2677.5] yes=21,no=22,missing=21
				21:leaf=-0.117517509
				22:leaf=0.0411185585
	2:[f13<0.465000004] yes=5,no=6,missing=5
		5:[f4<8.5] yes=11,no=12,missing=11
			11:[f9<0.458999991] yes=23,no=24,missing=23
				23:leaf=0.0272089597
				24:leaf=-0.0321785919
			12:[f0<77] yes=25,no=26,missing=25
				25:leaf=-0.0575579964
				26:leaf=0.061000932
		6:[f3<21.5] yes=13,no=14,missing=13
			13:[f10<139.5] yes=27,no=28,missing=27
				27:leaf=-0.048764877
				28:leaf=-0.0108555285
			14:[f1<4.5] yes=29,no=30,missing=29
				29:leaf=-0.00367772928
				30:leaf=0.0411414467
booster[45]:
0:[f11<6] yes=1,no=2,missing=1
	1:[f5<6.5] yes=3,no=4,missing=3
		3:[f1<21.5] yes=7,no=8,missing=7
			7:[f9<0.58949995] yes=15,no=16,missing=15
				15:leaf=0.00268624071
				16:leaf=-0.00828830432
			8:[f6<1.5] yes=17,no=18,missing=17
				17:leaf=0.0109858802
				18:leaf=0.0713378862
		4:[f9<0.597000003] yes=9,no=10,missing=9
			9:[f14<0.519999981] yes=19,no=20,missing=20
				19:leaf=0.0126560917
				20:leaf=-0.0573433116
			10:[f2<299.859985] yes=21,no=22,missing=21
				21:leaf=0.0919186324
				22:leaf=-0.0116571272
	2:[f4<10] yes=5,no=6,missing=5
		5:[f0<734] yes=11,no=12,missing=11
			11:[f10<79] yes=23,no=24,missing=23
				23:leaf=-0.0521710888
				24:leaf=0.0600412972
			12:leaf=-0.0781989843
		6:[f2<826.5] yes=13,no=14,missing=13
			13:[f1<4.5] yes=27,no=28,missing=27
				27:leaf=-0.0526554771
				28:leaf=-0.125511497
			14:[f0<287.5] yes=29,no=30,missing=29
				29:leaf=0.035680417
				30:leaf=-0.105657212
booster[46]:
0:[f2<3205.71484] yes=1,no=2,missing=1
	1:[f9<0.951499999] yes=3,no=4,missing=3
		3:[f5<6.5] yes=7,no=8,missing=7
			7:[f10<240.5] yes=13,no=14,missing=13
				13:leaf=-0.00074032339
				14:leaf=0.133164987
			8:[f9<0.597000003] yes=15,no=16,missing=15
				15:leaf=-0.0489082038
				16:leaf=0.0155030964
		4:leaf=-0.0694572479
	2:[f3<8.5] yes=5,no=6,missing=6
		5:leaf=0.0988845229
		6:[f3<30.5] yes=11,no=12,missing=11
			11:[f1<74.5] yes=17,no=18,missing=17
				17:leaf=0.00403459137
				18:leaf=0.0818625093
			12:[f2<3329.97998] yes=19,no=20,missing=19
				19:leaf=-0.0354360305
				20:leaf=0.0726483613
booster[47]:
0:[f11<6] yes=1,no=2,missing=1
	1:[f12<0.704999983] yes=3,no=4,missing=3
		3:[f3<23.5] yes=7,no=8,missing=8
			7:[f6<0.5] yes=15,no=16,missing=15
				15:leaf=-0.00722625339
				16:leaf=-0.0380620025
			8:[f4<1.5] yes=17,no=18,missing=17
				17:leaf=-0.0590323284
				18:leaf=0.00802757498
		4:[f12<0.732499957] yes=9,no=10,missing=9
			9:[f2<194.850006] yes=19,no=20,missing=19
				19:leaf=0.0118619958
				20:leaf=0.116197705
			10:[f10<84.5] yes=21,no=22,missing=21
				21:leaf=0.0771830603
				22:leaf=0.00171091908
	2:[f4<10] yes=5,no=6,missing=5
		5:[f12<0.477500021] yes=11,no=12,missing=11
			11:leaf=0.0916183889
			12:[f9<0.585000038] yes=23,no=24,missing=23
				23:leaf=0.0135110589
				24:leaf=-0.0816942453
		6:[f2<826.5] yes=13,no=14,missing=13
			13:[f9<0.555000007] yes=25,no=26,missing=25
				25:leaf=-0.0977663994
				26:leaf=-0.0348170362
			14:[f0<287.5] yes=27,no=28,missing=27
				27:leaf=0.0323709883
				28:leaf=-0.0983608142
booster[48]:
0:[f13<0.435000002] yes=1,no=2,missing=1
	1:[f2<189.300003] yes=3,no=4,missing=3
		3:[f3<13.5] yes=7,no=8,missing=7
			7:[f1<2] yes=15,no=16,missing=15
				15:leaf=0.00247429754
				16:leaf=0.0754971504
			8:[f12<0.192499995] yes=17,no=18,missing=17
				17:leaf=-0.0719646737
				18:leaf=-0.0102050034
		4:[f4<13.5] yes=9,no=10,missing=9
			9:[f7<-4.5] yes=19,no=20,missing=19
				19:leaf=-0.00260626595
				20:leaf=0.124732509
			10:[f3<35.5] yes=21,no=22,missing=21
				21:leaf=0.121290267
				22:leaf=-0.0198183395
	2:[f4<83.5] yes=5,no=6,missing=5
		5:[f4<80] yes=11,no=12,missing=11
			11:[f10<242.5] yes=23,no=24,missing=23
				23:leaf=-0.00648204749
				24:leaf=0.124008536
			12:[f2<1942.14502] yes=25,no=26,missing=25
				25:leaf=-0.0756830201
				26:leaf=-0.00528833829
		6:[f0<117] yes=13,no=14,missing=13
			13:[f5<4.5] yes=27,no=28,missing=27
				27:leaf=0.0026377847
				28:leaf=-0.0415113531
			14:[f1<4.5] yes=29,no=30,missing=29
				29:leaf=0.0181659386
				30:leaf=0.0640098751
booster[49]:
0:[f2<6974.1499] yes=1,no=2,missing=1
	1:[f13<0.879999995] yes=3,no=4,missing=3
		3:[f0<38.5] yes=7,no=8,missing=7
			7:[f1<2] yes=15,no=16,missing=15
				15:leaf=0.0016771002
				16:leaf=0.0327864327
			8:[f9<0.695500016] yes=17,no=18,missing=17
				17:leaf=-0.000510927639
				18:leaf=-0.0232310202
		4:[f13<0.965000033] yes=9,no=10,missing=9
			9:[f8<0.5] yes=19,no=20,missing=19
				19:leaf=-0.0255858153
				20:leaf=-0.0662140101
			10:[f2<515.839966] yes=21,no=22,missing=21
				21:leaf=-0.00519498577
				22:leaf=0.0428452305
	2:[f4<170.5] yes=5,no=6,missing=5
		5:[f4<108.5] yes=11,no=12,missing=11
			11:[f3<11.5] yes=23,no=24,missing=24
				23:leaf=0.088248536
				24:leaf=0.0176283196
			12:[f1<2] yes=25,no=26,missing=25
				25:leaf=0.0282365363
				26:leaf=-0.0705428272
		6:[f1<5.5] yes=13,no=14,missing=13
			13:[f10<116] yes=27,no=28,missing=27
				27:leaf=0.0757003874
				28:leaf=-0.0151149826
			14:leaf=0.0946354792
booster[50]:
0:[f2<1188.83008] yes=1,no=2,missing=1
	1:[f2<1128.04004] yes=3,no=4,missing=3
		3:[f9<0.166500002] yes=7,no=8,missing=7
			7:[f10<158.5] yes=15,no=16,missing=15
				15:leaf=0.0460547954
				16:leaf=-0.036763519
			8:[f7<-32] yes=17,no=18,missing=17
				17:leaf=0.108493857
				18:leaf=-0.00298399222
		4:[f10<172] yes=9,no=10,missing=9
			9:[f12<0.569000006] yes=19,no=20,missing=19
				19:leaf=-0.114457801
				20:leaf=-0.0350781493
			10:[f13<0.600000024] yes=21,no=22,missing=21
				21:leaf=0.110178486
				22:leaf=-0.029211957
	2:[f3<26.5] yes=5,no=6,missing=6
		5:[f0<17.5] yes=11,no=12,missing=11
			11:[f9<0.306999981] yes=23,no=24,missing=23
				23:leaf=-0.0553706065
				24:leaf=0.0528574958
			12:[f0<24] yes=25,no=26,missing=25
				25:leaf=-0.040965721
				26:leaf=0.00242580054
		6:[f5<5.5] yes=13,no=14,missing=13
			13:[f3<35.5] yes=27,no=28,missing=28
				27:leaf=0.0589857101
				28:leaf=0.017323168
			14:[f14<0.61500001] yes=29,no=30,missing=29
				29:leaf=-0.100452565
				30:leaf=0.0124279344
booster[51]:
0:[f2<98.7350006] yes=1,no=2,missing=1
	1:leaf=-0.100748099
	2:[f13<0.435000002] yes=3,no=4,missing=3
		3:[f2<189.300003] yes=5,no=6,missing=5
			5:[f1<2] yes=9,no=10,missing=9
				9:leaf=-0.00560540287
				10:leaf=0.0384011008
			6:[f4<13.5] yes=11,no=12,missing=11
				11:leaf=0.0109568732
				12:leaf=0.077020973
		4:[f10<127.5] yes=7,no=8,missing=7
			7:[f9<0.331499994] yes=13,no=14,missing=13
				13:leaf=-0.0171885043
				14:leaf=0.00527643552
			8:[f13<0.665000021] yes=15,no=16,missing=15
				15:leaf=-0.00351022067
				16:leaf=-0.025349522
booster[52]:
0:[f2<3205.71484] yes=1,no=2,missing=1
	1:[f9<0.951499999] yes=3,no=4,missing=3
		3:[f5<6.5] yes=7,no=8,missing=7
			7:[f0<139.5] yes=13,no=14,missing=13
				13:leaf=-0.00378802023
				14:leaf=0.00452054245
			8:[f9<0.597000003] yes=15,no=16,missing=15
				15:leaf=-0.0442820452
				16:leaf=0.0167043321
		4:leaf=-0.0624146573
	2:[f3<8.5] yes=5,no=6,missing=6
		5:leaf=0.0949510112
		6:[f3<30.5] yes=11,no=12,missing=11
			11:[f9<0.140499994] yes=17,no=18,missing=17
				17:leaf=-0.0914016366
				18:leaf=0.00778928725
			12:[f2<3329.97998] yes=19,no=20,missing=19
				19:leaf=-0.0338845327
				20:leaf=0.0651496202
booster[53]:
0:[f10<83.5] yes=1,no=2,missing=1
	1:[f12<0.819000006] yes=3,no=4,missing=3
		3:[f10<74.5] yes=7,no=8,missing=7
			7:[f0<198] yes=15,no=16,missing=15
				15:leaf=0.0795000717
				16:leaf=-0.0262037646
			8:[f3<39] yes=17,no=18,missing=17
				17:leaf=-0.0837161094
				18:leaf=0.017298691
		4:[f14<0.569999993] yes=9,no=10,missing=10
			9:[f10<76] yes=19,no=20,missing=19
				19:leaf=-0.105959646
				20:leaf=0.00382130826
			10:[f3<18.5] yes=21,no=22,missing=22
				21:leaf=0.0404050611
				22:leaf=0.146244094
	2:[f13<0.454999983] yes=5,no=6,missing=5
		5:[f10<87.5] yes=11,no=12,missing=11
			11:leaf=0.107400492
			12:[f10<159.5] yes=25,no=26,missing=25
				25:leaf=0.00015983195
				26:leaf=0.0396479703
		6:[f10<127.5] yes=13,no=14,missing=13
			13:[f9<0.327499986] yes=27,no=28,missing=27
				27:leaf=-0.0160445217
				28:leaf=0.00577057572
			14:[f12<0.131500006] yes=29,no=30,missing=29
				29:leaf=0.00707412604
				30:leaf=-0.013743395
booster[54]:
0:[f1<74.5] yes=1,no=2,missing=1
	1:[f4<13.5] yes=3,no=4,missing=3
		3:[f14<0.915000021] yes=7,no=8,missing=7
			7:[f10<225.5] yes=13,no=14,missing=13
				13:leaf=-0.00894256216
				14:leaf=0.0823935196
			8:leaf=0.118654847
		4:[f14<0.63499999] yes=9,no=10,missing=10
			9:[f1<2] yes=15,no=16,missing=15
				15:leaf=0.00113644358
				16:leaf=0.0429684334
			10:[f13<0.879999995] yes=17,no=18,missing=17
				17:leaf=0.000749687257
				18:leaf=-0.0321777575
	2:[f3<23.5] yes=5,no=6,missing=5
		5:leaf=0.0854856893
		6:leaf=-0.0248407405
booster[55]:
0:[f2<995.690002] yes=1,no=2,missing=1
	1:[f2<100.5] yes=3,no=4,missing=3
		3:[f1<2] yes=7,no=8,missing=7
			7:[f3<29.5] yes=15,no=16,missing=15
				15:leaf=-0.000419091957
				16:leaf=-0.0258833822
			8:[f13<0.745000005] yes=17,no=18,missing=17
				17:leaf=0.0278940294
				18:leaf=-0.0183190051
		4:[f2<192.300003] yes=9,no=10,missing=9
			9:leaf=-0.111013435
			10:[f2<200.125] yes=21,no=22,missing=21
				21:leaf=0.0958266482
				22:leaf=-0.00981075782
	2:[f13<0.474999994] yes=5,no=6,missing=5
		5:[f0<63] yes=11,no=12,missing=11
			11:[f7<-10.5] yes=23,no=24,missing=23
				23:leaf=0.0561350398
				24:leaf=-0.0918422043
			12:[f4<6.5] yes=25,no=26,missing=25
				25:leaf=0.0129295504
				26:leaf=0.0624317825
		6:[f4<318.5] yes=13,no=14,missing=13
			13:[f4<5.5] yes=27,no=28,missing=27
				27:leaf=-0.0320512466
				28:leaf=0.00196346734
			14:[f2<1212] yes=29,no=30,missing=29
				29:leaf=0.113602392
				30:leaf=0.0279839635
booster[56]:
0:[f2<98.7350006] yes=1,no=2,missing=1
	1:leaf=-0.0970390514
	2:[f2<6974.1499] yes=3,no=4,missing=3
		3:[f10<83.5] yes=5,no=6,missing=5
			5:[f10<80.5] yes=9,no=10,missing=9
				9:leaf=-0.00333106006
				10:leaf=-0.078604959
			6:[f9<0.168500006] yes=11,no=12,missing=11
				11:leaf=0.0264831819
				12:leaf=-0.000505082193
		4:[f2<7369.03516] yes=7,no=8,missing=7
			7:leaf=0.0918873996
			8:[f2<7447.54492] yes=15,no=16,missing=15
				15:leaf=-0.114000596
				16:leaf=0.0187843796
booster[57]:
0:[f1<74.5] yes=1,no=2,missing=1
	1:[f14<0.925000012] yes=3,no=4,missing=3
		3:[f14<0.88499999] yes=7,no=8,missing=7
			7:[f0<139.5] yes=13,no=14,missing=13
				13:leaf=-0.00424849847
				14:leaf=0.00382516044
			8:[f9<0.431999981] yes=15,no=16,missing=15
				15:leaf=0.0656137094
				16:leaf=-0.0399751998
		4:[f1<2] yes=9,no=10,missing=9
			9:[f0<407] yes=17,no=18,missing=17
				17:leaf=0.00501103466
				18:leaf=0.117186479
			10:[f3<8.5] yes=19,no=20,missing=20
				19:leaf=0.0976067632
				20:leaf=0.0162972473
	2:[f0<198] yes=5,no=6,missing=5
		5:leaf=0.0924972892
		6:[f9<0.468500018] yes=11,no=12,missing=11
			11:leaf=-0.0695006475
			12:leaf=0.0629261658
booster[58]:
0:[f4<21.5] yes=1,no=2,missing=1
	1:[f3<14.5] yes=3,no=4,missing=3
		3:[f12<0.961499989] yes=7,no=8,missing=7
			7:[f10<215.5] yes=15,no=16,missing=15
				15:leaf=-0.00719455257
				16:leaf=0.110619701
			8:[f13<0.444999993] yes=17,no=18,missing=17
				17:leaf=0.0685633942
				18:leaf=0.00530693773
		4:[f9<0.736000001] yes=9,no=10,missing=9
			9:[f7<-27] yes=19,no=20,missing=19
				19:leaf=0.0597914234
				20:leaf=-0.0205892697
			10:[f11<2] yes=21,no=22,missing=21
				21:leaf=-0.0405022167
				22:leaf=0.0501187854
	2:[f0<458.5] yes=5,no=6,missing=5
		5:[f0<139.5] yes=11,no=12,missing=11
			11:[f5<4.5] yes=23,no=24,missing=23
				23:leaf=0.00206688698
				24:leaf=-0.0217940118
			12:[f1<2] yes=25,no=26,missing=25
				25:leaf=0.00429070648
				26:leaf=0.0370093472
		6:[f2<2949.72998] yes=13,no=14,missing=13
			13:[f2<156.794998] yes=27,no=28,missing=27
				27:leaf=0.0403304361
				28:leaf=-0.116158321
			14:[f1<4.5] yes=29,no=30,missing=29
				29:leaf=-0.0510465018
				30:leaf=0.0659874752
booster[59]:
0:[f2<1188.83008] yes=1,no=2,missing=1
	1:[f2<1155.73999] yes=3,no=4,missing=3
		3:[f9<0.479499996] yes=7,no=8,missing=7
			7:[f9<0.467500001] yes=15,no=16,missing=15
				15:leaf=0.000241115951
				16:leaf=0.0398776829
			8:[f3<14.5] yes=17,no=18,missing=18
				17:leaf=-0.0203495324
				18:leaf=-0.00132025802
		4:[f10<161.5] yes=9,no=10,missing=9
			9:[f0<55.5] yes=19,no=20,missing=19
				19:leaf=-0.128578946
				20:leaf=-0.0374852046
			10:leaf=0.0292544868
	2:[f10<186.5] yes=5,no=6,missing=5
		5:[f10<183.5] yes=11,no=12,missing=11
			11:[f9<0.330500007] yes=23,no=24,missing=23
				23:leaf=-0.0140010854
				24:leaf=0.00996164419
			12:[f1<32.5] yes=25,no=26,missing=25
				25:leaf=0.100885428
				26:leaf=-0.0399303697
		6:[f13<0.569999993] yes=13,no=14,missing=13
			13:[f9<0.449500024] yes=27,no=28,missing=27
				27:leaf=-0.0397239402
				28:leaf=0.0874070674
			14:[f2<2478.70508] yes=29,no=30,missing=29
				29:leaf=-0.0907735452
				30:leaf=-0.00305305701
booster[60]:
0:[f2<98.7350006] yes=1,no=2,missing=1
	1:leaf=-0.0936111137
	2:[f0<963.5] yes=3,no=4,missing=3
		3:[f7<-34.5] yes=5,no=6,missing=5
			5:leaf=0.08351098
			6:[f5<4.5] yes=9,no=10,missing=9
				9:leaf=0.00195181952
				10:leaf=-0.0064422898
		4:[f0<1059] yes=7,no=8,missing=7
			7:[f12<0.922000051] yes=11,no=12,missing=11
				11:leaf=-0.0866873488
				12:leaf=0.0432554856
			8:[f14<0.605000019] yes=13,no=14,missing=14
				13:leaf=-0.0248584058
				14:leaf=0.073744759
booster[61]:
0:[f13<0.335000008] yes=1,no=2,missing=1
	1:[f9<0.532999992] yes=3,no=4,missing=3
		3:[f6<0.5] yes=7,no=8,missing=7
			7:[f10<163.5] yes=15,no=16,missing=15
				15:leaf=0.06228837
				16:leaf=-0.0828341171
			8:leaf=0.155153632
		4:[f9<0.612499952] yes=9,no=10,missing=9
			9:[f14<0.229999989] yes=17,no=18,missing=18
				17:leaf=-0.0902171656
				18:leaf=0.0201506298
			10:[f0<819] yes=19,no=20,missing=19
				19:leaf=-0.00390402763
				20:leaf=0.091469191
	2:[f0<963.5] yes=5,no=6,missing=5
		5:[f0<12.5] yes=11,no=12,missing=11
			11:[f2<365.040009] yes=21,no=22,missing=21
				21:leaf=0.00245037372
				22:leaf=0.0318480656
			12:[f0<13.5] yes=23,no=24,missing=23
				23:leaf=-0.0687304884
				24:leaf=-0.0009895931
		6:[f7<-8.5] yes=13,no=14,missing=13
			13:[f2<1843.62] yes=25,no=26,missing=25
				25:leaf=-0.098736912
				26:leaf=0.0431993641
			14:[f5<3.5] yes=27,no=28,missing=27
				27:leaf=-0.0617550686
				28:leaf=0.0548949726
booster[62]:
0:[f11<6] yes=1,no=2,missing=1
	1:[f14<0.824999988] yes=3,no=4,missing=3
		3:[f0<139.5] yes=7,no=8,missing=7
			7:[f0<132.5] yes=15,no=16,missing=15
				15:leaf=-0.00469979038
				16:leaf=-0.076671347
			8:[f4<19.5] yes=17,no=18,missing=17
				17:leaf=-0.0042038816
				18:leaf=0.0116421925
		4:[f2<1570.90002] yes=9,no=10,missing=9
			9:[f9<0.440500021] yes=19,no=20,missing=19
				19:leaf=0.0123621561
				20:leaf=-0.0093743233
			10:[f2<2131] yes=21,no=22,missing=21
				21:leaf=0.0655394495
				22:leaf=0.0131166792
	2:[f12<0.802999973] yes=5,no=6,missing=5
		5:[f1<10] yes=11,no=12,missing=11
			11:[f10<82.5] yes=23,no=24,missing=23
				23:leaf=-0.0284887981
				24:leaf=0.0580059253
			12:leaf=-0.0788737461
		6:[f13<0.564999998] yes=13,no=14,missing=13
			13:[f1<7.5] yes=25,no=26,missing=25
				25:leaf=-0.0656862259
				26:leaf=-0.00414988166
			14:leaf=0.0465199351
booster[63]:
0:[f1<74.5] yes=1,no=2,missing=1
	1:[f2<98.7350006] yes=3,no=4,missing=3
		3:leaf=-0.0905218124
		4:[f13<0.965000033] yes=7,no=8,missing=7
			7:[f13<0.879999995] yes=11,no=12,missing=11
				11:leaf=0.00052588532
				12:leaf=-0.0390887707
			8:[f14<0.835000038] yes=13,no=14,missing=14
				13:leaf=0.0326442085
				14:leaf=-0.016064994
	2:[f3<23.5] yes=5,no=6,missing=5
		5:leaf=0.0803582743
		6:leaf=-0.0267734267
booster[64]:
0:[f2<995.690002] yes=1,no=2,missing=1
	1:[f2<100.5] yes=3,no=4,missing=3
		3:[f1<2] yes=7,no=8,missing=7
			7:[f3<29.5] yes=15,no=16,missing=15
				15:leaf=-0.000506941695
				16:leaf=-0.0236924663
			8:[f3<8.5] yes=17,no=18,missing=18
				17:leaf=0.0948209018
				18:leaf=0.0115046864
		4:[f2<192.300003] yes=9,no=10,missing=9
			9:leaf=-0.10633295
			10:[f4<405.5] yes=21,no=22,missing=21
				21:leaf=-0.00746806292
				22:leaf=0.104832411
	2:[f7<-20.5] yes=5,no=6,missing=5
		5:[f3<21.5] yes=11,no=12,missing=11
			11:leaf=0.129229203
			12:leaf=0.00640971679
		6:[f12<0.790500045] yes=13,no=14,missing=13
			13:[f3<30.5] yes=23,no=24,missing=23
				23:leaf=-0.00744593469
				24:leaf=0.0347975083
			14:[f2<1077.97498] yes=25,no=26,missing=25
				25:leaf=0.0814489946
				26:leaf=0.0102029415
booster[65]:
0:[f9<0.168500006] yes=1,no=2,missing=1
	1:[f13<0.495000005] yes=3,no=4,missing=3
		3:[f0<509.5] yes=7,no=8,missing=7
			7:[f9<0.1435] yes=13,no=14,missing=13
				13:leaf=-0.0857483819
				14:leaf=0.0475766957
			8:[f3<24] yes=15,no=16,missing=15
				15:leaf=0.0774069726
				16:leaf=-0.0836289302
		4:[f7<-10] yes=9,no=10,missing=9
			9:leaf=0.150532618
			10:[f1<2] yes=17,no=18,missing=17
				17:leaf=0.000854951621
				18:leaf=0.0766218901
	2:[f7<-32] yes=5,no=6,missing=5
		5:leaf=0.0855676159
		6:[f2<3205.71484] yes=11,no=12,missing=11
			11:[f9<0.951499999] yes=19,no=20,missing=19
				19:leaf=-0.0015840719
				20:leaf=-0.0566766746
			12:[f10<149.5] yes=21,no=22,missing=21
				21:leaf=0.0181495678
				22:leaf=-0.0116500696
booster[66]:
0:[f13<0.335000008] yes=1,no=2,missing=1
	1:[f9<0.532999992] yes=3,no=4,missing=3
		3:[f6<0.5] yes=7,no=8,missing=7
			7:[f10<163.5] yes=15,no=16,missing=15
				15:leaf=0.0562955514
				16:leaf=-0.078257367
			8:leaf=0.140962735
		4:[f2<1558] yes=9,no=10,missing=9
			9:[f8<0.5] yes=17,no=18,missing=17
				17:leaf=0.00785728265
				18:leaf=-0.0410571471
			10:leaf=0.0948548764
	2:[f0<963.5] yes=5,no=6,missing=5
		5:[f4<48.5] yes=11,no=12,missing=11
			11:[f0<382.5] yes=19,no=20,missing=19
				19:leaf=-0.00785387307
				20:leaf=0.00852868427
			12:[f12<0.126000002] yes=21,no=22,missing=21
				21:leaf=0.0300392266
				22:leaf=3.13919627e-005
		6:[f12<0.922000051] yes=13,no=14,missing=13
			13:[f0<1070] yes=23,no=24,missing=23
				23:leaf=-0.0877272189
				24:leaf=0.00452655321
			14:[f5<3.5] yes=25,no=26,missing=25
				25:leaf=-0.0684525073
				26:leaf=0.0952241942
booster[67]:
0:[f2<98.7350006] yes=1,no=2,missing=1
	1:leaf=-0.0874624476
	2:[f10<242.5] yes=3,no=4,missing=3
		3:[f12<0.544499993] yes=5,no=6,missing=5
			5:[f11<3.5] yes=7,no=8,missing=7
				7:leaf=0.011982399
				8:leaf=-0.0104934955
			6:[f12<0.557500005] yes=9,no=10,missing=9
				9:leaf=0.0580573939
				10:leaf=0.00112276722
		4:leaf=0.0972117335
booster[68]:
0:[f2<6974.1499] yes=1,no=2,missing=1
	1:[f9<0.783499956] yes=3,no=4,missing=3
		3:[f9<0.763999999] yes=7,no=8,missing=7
			7:[f9<0.761500001] yes=15,no=16,missing=15
				15:leaf=2.49304558e-005
				16:leaf=-0.0454641394
			8:[f12<0.980499983] yes=17,no=18,missing=17
				17:leaf=0.0599192679
				18:leaf=-0.0684413016
		4:[f4<4.5] yes=9,no=10,missing=9
			9:[f14<0.25999999] yes=19,no=20,missing=19
				19:leaf=-0.0288811158
				20:leaf=0.0931783468
			10:[f3<21.5] yes=21,no=22,missing=21
				21:leaf=-0.0573584847
				22:leaf=0.00992211141
	2:[f4<170.5] yes=5,no=6,missing=5
		5:[f4<108.5] yes=11,no=12,missing=11
			11:[f3<11.5] yes=23,no=24,missing=24
				23:leaf=0.0832357779
				24:leaf=0.0115713188
			12:[f12<0.746500015] yes=25,no=26,missing=25
				25:leaf=-0.0648161471
				26:leaf=0.0320118144
		6:[f1<5.5] yes=13,no=14,missing=13
			13:[f10<116] yes=27,no=28,missing=27
				27:leaf=0.067374073
				28:leaf=-0.0157036353
			14:leaf=0.0914168283
booster[69]:
0:[f9<0.168500006] yes=1,no=2,missing=1
	1:[f14<0.474999994] yes=3,no=4,missing=3
		3:[f3<39.5] yes=7,no=8,missing=7
			7:[f7<-9.5] yes=15,no=16,missing=15
				15:leaf=0.116582669
				16:leaf=0.0300919395
			8:leaf=-0.0473580062
		4:[f13<0.524999976] yes=9,no=10,missing=9
			9:[f4<5.5] yes=17,no=18,missing=17
				17:leaf=-0.120500922
				18:leaf=0.0295315273
			10:[f13<0.545000017] yes=19,no=20,missing=19
				19:leaf=0.0946153626
				20:leaf=0.0136580123
	2:[f2<1485.15991] yes=5,no=6,missing=5
		5:[f6<6.5] yes=11,no=12,missing=11
			11:[f0<963.5] yes=21,no=22,missing=21
				21:leaf=-0.00206826045
				22:leaf=-0.0411934033
			12:[f7<-8.5] yes=23,no=24,missing=23
				23:leaf=0.117893934
				24:leaf=0.0115695279
		6:[f7<-18.5] yes=13,no=14,missing=13
			13:leaf=0.110742502
			14:[f0<801] yes=27,no=28,missing=27
				27:leaf=0.00342298369
				28:leaf=0.0682848915
booster[70]:
0:[f11<6] yes=1,no=2,missing=1
	1:[f14<0.824999988] yes=3,no=4,missing=3
		3:[f13<0.665000021] yes=7,no=8,missing=7
			7:[f4<16.5] yes=15,no=16,missing=15
				15:leaf=-0.00653643021
				16:leaf=0.00616690982
			8:[f14<0.694999993] yes=17,no=18,missing=18
				17:leaf=0.0157356728
				18:leaf=-0.0164172966
		4:[f13<0.5] yes=9,no=10,missing=9
			9:[f1<2] yes=19,no=20,missing=19
				19:leaf=0.0311227422
				20:leaf=0.111600019
			10:[f2<1563.96509] yes=21,no=22,missing=21
				21:leaf=5.04553136e-005
				22:leaf=0.0238039643
	2:[f4<10] yes=5,no=6,missing=5
		5:[f0<746] yes=11,no=12,missing=11
			11:[f1<2] yes=23,no=24,missing=23
				23:leaf=-0.00815871265
				24:leaf=0.0838944614
			12:leaf=-0.0840176418
		6:[f2<826.5] yes=13,no=14,missing=13
			13:[f1<4.5] yes=25,no=26,missing=25
				25:leaf=-0.0356160887
				26:leaf=-0.101110458
			14:[f0<287.5] yes=27,no=28,missing=27
				27:leaf=0.0367035381
				28:leaf=-0.0939902738
booster[71]:
0:[f1<74.5] yes=1,no=2,missing=1
	1:[f2<98.7350006] yes=3,no=4,missing=3
		3:leaf=-0.0846633688
		4:[f12<0.544499993] yes=7,no=8,missing=7
			7:[f11<3.5] yes=11,no=12,missing=11
				11:leaf=0.01082139
				12:leaf=-0.00972756278
			8:[f12<0.557500005] yes=13,no=14,missing=13
				13:leaf=0.0514705591
				14:leaf=0.00102258881
	2:[f0<198] yes=5,no=6,missing=5
		5:leaf=0.0884829089
		6:[f9<0.468500018] yes=9,no=10,missing=9
			9:leaf=-0.0692127496
			10:leaf=0.0590799637
booster[72]:
0:[f10<127.5] yes=1,no=2,missing=1
	1:[f9<0.331499994] yes=3,no=4,missing=3
		3:[f4<59] yes=7,no=8,missing=7
			7:[f7<-15.5] yes=15,no=16,missing=15
				15:leaf=-0.0775731131
				16:leaf=0.0146634998
			8:[f9<0.230500013] yes=17,no=18,missing=17
				17:leaf=-0.0121935634
				18:leaf=-0.0590518191
		4:[f2<712.89502] yes=9,no=10,missing=9
			9:[f2<689.744995] yes=19,no=20,missing=19
				19:leaf=0.000691987458
				20:leaf=-0.0724001527
			10:[f10<124.5] yes=21,no=22,missing=21
				21:leaf=0.00813242514
				22:leaf=0.0519536249
	2:[f13<0.465000004] yes=5,no=6,missing=5
		5:[f7<-6.5] yes=11,no=12,missing=11
			11:[f10<184.5] yes=23,no=24,missing=23
				23:leaf=-0.0159580838
				24:leaf=0.0471461415
			12:[f3<15.5] yes=25,no=26,missing=25
				25:leaf=0.0618672445
				26:leaf=0.00688739354
		6:[f12<0.985499978] yes=13,no=14,missing=13
			13:[f12<0.684499979] yes=27,no=28,missing=27
				27:leaf=-0.012040888
				28:leaf=0.0128463926
			14:[f14<0.705000043] yes=29,no=30,missing=29
				29:leaf=-0.00482271286
				30:leaf=-0.0613360591
booster[73]:
0:[f2<98.7350006] yes=1,no=2,missing=1
	1:leaf=-0.0825616345
	2:[f1<51.5] yes=3,no=4,missing=3
		3:[f1<46.5] yes=5,no=6,missing=5
			5:[f1<40.5] yes=9,no=10,missing=9
				9:leaf=-0.000121988123
				10:leaf=0.0605745614
			6:[f2<10408.9551] yes=11,no=12,missing=11
				11:leaf=-0.138209999
				12:leaf=0.0601184964
		4:[f14<0.584999979] yes=7,no=8,missing=7
			7:leaf=0.0860016271
			8:[f14<0.61500001] yes=13,no=14,missing=14
				13:leaf=-0.0804747939
				14:leaf=0.0325312726
booster[74]:
0:[f10<242.5] yes=1,no=2,missing=1
	1:[f4<13.5] yes=3,no=4,missing=3
		3:[f10<149.5] yes=5,no=6,missing=5
			5:[f10<143.5] yes=9,no=10,missing=9
				9:leaf=-0.0034094099
				10:leaf=0.0628689229
			6:[f10<155.5] yes=11,no=12,missing=11
				11:leaf=-0.0625160858
				12:leaf=-0.011001531
		4:[f14<0.63499999] yes=7,no=8,missing=8
			7:[f1<2] yes=13,no=14,missing=13
				13:leaf=0.000551314966
				14:leaf=0.0374205485
			8:[f13<0.879999995] yes=15,no=16,missing=15
				15:leaf=0.000696926843
				16:leaf=-0.0263161249
	2:leaf=0.0903194547
booster[75]:
0:[f2<4861.74512] yes=1,no=2,missing=1
	1:[f2<4815.13965] yes=3,no=4,missing=3
		3:[f9<0.951499999] yes=7,no=8,missing=7
			7:[f9<0.168500006] yes=15,no=16,missing=15
				15:leaf=0.0177870095
				16:leaf=-0.000699376164
			8:leaf=-0.0502930395
		4:leaf=-0.0983405113
	2:[f4<170.5] yes=5,no=6,missing=5
		5:[f13<0.454999983] yes=11,no=12,missing=11
			11:leaf=0.0698231682
			12:[f4<6.5] yes=21,no=22,missing=21
				21:leaf=-0.0420872979
				22:leaf=0.0045966669
		6:[f1<10.5] yes=13,no=14,missing=13
			13:[f2<5519.26465] yes=23,no=24,missing=23
				23:leaf=0.11811626
				24:leaf=-0.00260788435
			14:[f2<5416.1499] yes=25,no=26,missing=25
				25:leaf=-0.0215334184
				26:leaf=0.0849189907
booster[76]:
0:[f10<83.5] yes=1,no=2,missing=1
	1:[f12<0.819000006] yes=3,no=4,missing=3
		3:[f10<74.5] yes=7,no=8,missing=7
			7:[f0<198] yes=15,no=16,missing=15
				15:leaf=0.0747568682
				16:leaf=-0.0208384041
			8:[f3<39] yes=17,no=18,missing=18
				17:leaf=-0.0788203701
				18:leaf=-0.0097447345
		4:[f14<0.569999993] yes=9,no=10,missing=10
			9:[f10<76] yes=19,no=20,missing=19
				19:leaf=-0.102971315
				20:leaf=0.00790364388
			10:[f4<17] yes=21,no=22,missing=21
				21:leaf=0.124843612
				22:leaf=0.0252588931
	2:[f10<84.5] yes=5,no=6,missing=5
		5:[f3<18] yes=11,no=12,missing=11
			11:[f1<9.5] yes=23,no=24,missing=23
				23:leaf=0.0421367586
				24:leaf=-0.0749843344
			12:leaf=0.177717716
		6:[f11<4.5] yes=13,no=14,missing=13
			13:[f9<0.648499966] yes=25,no=26,missing=25
				25:leaf=-0.000565762515
				26:leaf=0.0101714116
			14:[f3<12.5] yes=27,no=28,missing=28
				27:leaf=-0.0380180143
				28:leaf=-0.000588332943
booster[77]:
0:[f2<499.5] yes=1,no=2,missing=1
	1:[f2<478.390015] yes=3,no=4,missing=3
		3:[f2<100.5] yes=7,no=8,missing=7
			7:[f1<2] yes=15,no=16,missing=15
				15:leaf=-0.00214553461
				16:leaf=0.0143023459
			8:[f2<192.300003] yes=17,no=18,missing=17
				17:leaf=-0.102235965
				18:leaf=-0.00405444531
		4:leaf=-0.0962617472
	2:[f4<405.5] yes=5,no=6,missing=5
		5:[f7<-17.5] yes=11,no=12,missing=11
			11:[f9<0.28549999] yes=23,no=24,missing=23
				23:leaf=-0.0146985864
				24:leaf=0.0941734612
			12:[f3<23.5] yes=25,no=26,missing=25
				25:leaf=-0.00207087072
				26:leaf=0.0170066655
		6:leaf=0.0853966996
booster[78]:
0:[f13<0.965000033] yes=1,no=2,missing=1
	1:[f13<0.879999995] yes=3,no=4,missing=3
		3:[f0<38.5] yes=7,no=8,missing=7
			7:[f9<0.32949999] yes=15,no=16,missing=15
				15:leaf=-0.0202190094
				16:leaf=0.0104177883
			8:[f9<0.695500016] yes=17,no=18,missing=17
				17:leaf=0.000105387291
				18:leaf=-0.0151702482
		4:[f2<5833.94531] yes=9,no=10,missing=9
			9:[f2<3843.4751] yes=19,no=20,missing=19
				19:leaf=-0.0327318348
				20:leaf=-0.0879093632
			10:[f1<24.5] yes=21,no=22,missing=21
				21:leaf=0.0482731573
				22:leaf=-0.0280410629
	2:[f2<515.839966] yes=5,no=6,missing=5
		5:[f2<132.660004] yes=11,no=12,missing=11
			11:leaf=0.0250117537
			12:leaf=-0.0599014238
		6:[f2<912.059998] yes=13,no=14,missing=13
			13:leaf=0.0956584513
			14:[f2<1018.32501] yes=29,no=30,missing=29
				29:leaf=-0.111078322
				30:leaf=0.0259826463
booster[79]:
0:[f2<2705.64014] yes=1,no=2,missing=1
	1:[f2<2693.70996] yes=3,no=4,missing=3
		3:[f9<0.168500006] yes=7,no=8,missing=7
			7:[f14<0.474999994] yes=15,no=16,missing=15
				15:leaf=0.0429311097
				16:leaf=-0.0133906752
			8:[f7<-32] yes=17,no=18,missing=17
				17:leaf=0.076329805
				18:leaf=-0.00145505858
		4:[f3<12.5] yes=9,no=10,missing=10
			9:leaf=-0.00396783138
			10:leaf=-0.141179964
	2:[f2<2800.75] yes=5,no=6,missing=5
		5:[f14<0.675000012] yes=11,no=12,missing=12
			11:[f3<15] yes=19,no=20,missing=19
				19:leaf=0.0440108143
				20:leaf=-0.106564127
			12:[f9<0.643999994] yes=21,no=22,missing=21
				21:leaf=0.118483923
				22:leaf=-0.0281755272
		6:[f1<13.5] yes=13,no=14,missing=13
			13:[f2<3020.01001] yes=23,no=24,missing=23
				23:leaf=-0.0495711342
				24:leaf=0.000930896669
			14:[f13<0.574999988] yes=25,no=26,missing=25
				25:leaf=0.0554740541
				26:leaf=0.00627264148
booster[80]:
0:[f2<98.7350006] yes=1,no=2,missing=1
	1:leaf=-0.0800268352
	2:[f1<80.5] yes=3,no=4,missing=3
		3:[f13<0.335000008] yes=5,no=6,missing=5
			5:[f9<0.532999992] yes=9,no=10,missing=9
				9:leaf=0.0545315556
				10:leaf=-0.00915237982
			6:[f0<963.5] yes=11,no=12,missing=11
				11:leaf=-0.000147468469
				12:leaf=-0.0333238654
		4:leaf=0.0566186719
booster[81]:
0:[f4<48.5] yes=1,no=2,missing=1
	1:[f4<41.5] yes=3,no=4,missing=3
		3:[f12<0.544499993] yes=7,no=8,missing=7
			7:[f12<0.454999983] yes=15,no=16,missing=15
				15:leaf=-0.00491896737
				16:leaf=-0.0315325148
			8:[f5<6.5] yes=17,no=18,missing=17
				17:leaf=0.007073279
				18:leaf=-0.03603011
		4:[f5<6] yes=9,no=10,missing=9
			9:[f9<0.459500015] yes=19,no=20,missing=19
				19:leaf=-0.00248109899
				20:leaf=-0.058651872
			10:[f2<1506.66504] yes=21,no=22,missing=21
				21:leaf=0.00273788581
				22:leaf=0.103826426
	2:[f0<430] yes=5,no=6,missing=5
		5:[f0<128] yes=11,no=12,missing=11
			11:[f5<4.5] yes=23,no=24,missing=23
				23:leaf=0.00228427374
				24:leaf=-0.0267903414
			12:[f1<2] yes=25,no=26,missing=25
				25:leaf=0.00753637636
				26:leaf=0.0526495688
		6:[f1<8.5] yes=13,no=14,missing=13
			13:leaf=-0.0824882984
			14:leaf=0.0213191602
booster[82]:
0:[f2<499.5] yes=1,no=2,missing=1
	1:[f2<409.804993] yes=3,no=4,missing=3
		3:[f1<8.5] yes=7,no=8,missing=7
			7:[f9<0.65200001] yes=15,no=16,missing=15
				15:leaf=-0.00446507195
				16:leaf=0.0145861851
			8:[f9<0.501999974] yes=17,no=18,missing=17
				17:leaf=0.0484352373
				18:leaf=0.00254465663
		4:[f3<24.5] yes=9,no=10,missing=10
			9:[f14<0.555000007] yes=19,no=20,missing=19
				19:leaf=0.0802165046
				20:leaf=-0.0445970111
			10:[f9<0.331499994] yes=21,no=22,missing=21
				21:leaf=0.000446215825
				22:leaf=-0.108203076
	2:[f4<405.5] yes=5,no=6,missing=5
		5:[f7<-17.5] yes=11,no=12,missing=11
			11:[f7<-31.5] yes=23,no=24,missing=23
				23:leaf=-0.0211251304
				24:leaf=0.0879246593
			12:[f13<0.344999999] yes=25,no=26,missing=25
				25:leaf=0.0788027495
				26:leaf=0.000745133788
		6:leaf=0.080274187
booster[83]:
0:[f2<98.7350006] yes=1,no=2,missing=1
	1:leaf=-0.0777702555
	2:[f4<13.5] yes=3,no=4,missing=3
		3:[f9<0.843500018] yes=5,no=6,missing=5
			5:[f14<0.915000021] yes=9,no=10,missing=9
				9:leaf=-0.00658229738
				10:leaf=0.0994829684
			6:[f9<0.901499987] yes=11,no=12,missing=11
				11:leaf=0.0899040848
				12:leaf=-0.00968197547
		4:[f14<0.63499999] yes=7,no=8,missing=8
			7:[f14<0.61500001] yes=13,no=14,missing=14
				13:leaf=0.00375240901
				14:leaf=0.042413611
			8:[f3<21.5] yes=15,no=16,missing=15
				15:leaf=-0.00344795245
				16:leaf=0.0103672463
booster[84]:
0:[f0<5.5] yes=1,no=2,missing=1
	1:[f0<3.5] yes=3,no=4,missing=3
		3:[f1<2] yes=7,no=8,missing=7
			7:[f9<0.449500024] yes=15,no=16,missing=15
				15:leaf=0.00249987491
				16:leaf=-0.0350726955
			8:[f0<2.5] yes=17,no=18,missing=17
				17:leaf=-0.0071653137
				18:leaf=0.0940105543
		4:[f2<574.190002] yes=9,no=10,missing=9
			9:leaf=0.000567073177
			10:[f1<9.5] yes=21,no=22,missing=21
				21:leaf=0.130418837
				22:leaf=-0.00260826014
	2:[f13<0.675000012] yes=5,no=6,missing=5
		5:[f4<21.5] yes=11,no=12,missing=11
			11:[f9<0.843500018] yes=23,no=24,missing=23
				23:leaf=-0.00526035717
				24:leaf=0.0594437383
			12:[f0<439.5] yes=25,no=26,missing=25
				25:leaf=0.0071249539
				26:leaf=-0.0585787185
		6:[f13<0.689999998] yes=13,no=14,missing=13
			13:[f1<5.5] yes=27,no=28,missing=27
				27:leaf=-0.0099432189
				28:leaf=-0.0545129776
			14:[f14<0.694999993] yes=29,no=30,missing=30
				29:leaf=0.0188541133
				30:leaf=-0.00814841781
booster[85]:
0:[f2<2705.64014] yes=1,no=2,missing=1
	1:[f2<2693.70996] yes=3,no=4,missing=3
		3:[f9<0.776499987] yes=7,no=8,missing=7
			7:[f9<0.763999999] yes=15,no=16,missing=15
				15:leaf=-0.000738690782
				16:leaf=0.0595441423
			8:[f14<0.63499999] yes=17,no=18,missing=18
				17:leaf=0.0151077006
				18:leaf=-0.0353880785
		4:[f3<12.5] yes=9,no=10,missing=10
			9:leaf=-0.00169379206
			10:leaf=-0.133021578
	2:[f4<6.5] yes=5,no=6,missing=5
		5:[f2<3704.30005] yes=11,no=12,missing=11
			11:[f9<0.67050004] yes=19,no=20,missing=19
				19:leaf=-0.119845293
				20:leaf=0.0469019227
			12:[f3<15.5] yes=21,no=22,missing=22
				21:leaf=-0.0437906533
				22:leaf=0.071675621
		6:[f2<2808.5] yes=13,no=14,missing=13
			13:[f12<0.664000034] yes=23,no=24,missing=23
				23:leaf=0.115335681
				24:leaf=0.0185168609
			14:[f13<0.504999995] yes=25,no=26,missing=25
				25:leaf=0.0505038388
				26:leaf=0.00478911772
booster[86]:
0:[f3<35.5] yes=1,no=2,missing=1
	1:[f9<0.168500006] yes=3,no=4,missing=3
		3:[f7<-5.5] yes=7,no=8,missing=7
			7:[f14<0.454999983] yes=15,no=16,missing=15
				15:leaf=0.0575731508
				16:leaf=-6.97883224e-005
			8:[f13<0.555000007] yes=17,no=18,missing=17
				17:leaf=-0.0773639157
				18:leaf=0.0095718829
		4:[f13<0.495000005] yes=9,no=10,missing=9
			9:[f14<0.764999986] yes=19,no=20,missing=19
				19:leaf=0.00151143724
				20:leaf=0.0623779409
			10:[f10<127.5] yes=21,no=22,missing=21
				21:leaf=0.00187605608
				22:leaf=-0.00847847667
	2:[f12<0.476500005] yes=5,no=6,missing=5
		5:[f1<2] yes=11,no=12,missing=11
			11:[f10<99] yes=23,no=24,missing=23
				23:leaf=0.112132505
				24:leaf=-0.0150856776
			12:[f4<15.5] yes=25,no=26,missing=25
				25:leaf=-0.0114868572
				26:leaf=0.0839552507
		6:[f2<3982.96484] yes=13,no=14,missing=13
			13:[f2<1956.63501] yes=27,no=28,missing=27
				27:leaf=-0.0294763949
				28:leaf=-0.121758632
			14:leaf=0.0656770393
booster[87]:
0:[f7<-5.5] yes=1,no=2,missing=1
	1:[f3<9.5] yes=3,no=4,missing=4
		3:[f2<868.284973] yes=7,no=8,missing=7
			7:[f14<0.639999986] yes=15,no=16,missing=16
				15:leaf=-0.00445661834
				16:leaf=-0.0958334953
			8:[f6<4.5] yes=17,no=18,missing=17
				17:leaf=0.0138196098
				18:leaf=-0.0698888227
		4:[f14<0.754999995] yes=9,no=10,missing=10
			9:[f9<0.398499995] yes=19,no=20,missing=19
				19:leaf=-0.0236221906
				20:leaf=0.000532575476
			10:[f13<0.665000021] yes=21,no=22,missing=21
				21:leaf=0.0134028662
				22:leaf=-0.0112387305
	2:[f0<382.5] yes=5,no=6,missing=5
		5:[f3<10.5] yes=11,no=12,missing=12
			11:[f1<2] yes=23,no=24,missing=23
				23:leaf=0.00400944054
				24:leaf=0.0389735736
			12:[f7<-4.5] yes=25,no=26,missing=25
				25:leaf=0.00889584329
				26:leaf=-0.00856658537
		6:[f0<469] yes=13,no=14,missing=13
			13:[f10<92.5] yes=27,no=28,missing=27
				27:leaf=-0.0117421495
				28:leaf=0.0942179784
			14:[f3<9.5] yes=29,no=30,missing=30
				29:leaf=0.134862423
				30:leaf=-0.00595303532
booster[88]:
0:[f10<242.5] yes=1,no=2,missing=1
	1:[f5<2.5] yes=3,no=4,missing=3
		3:[f3<40] yes=5,no=6,missing=6
			5:[f0<263] yes=9,no=10,missing=9
				9:leaf=-0.00944728684
				10:leaf=-0.0528942905
			6:[f0<323.5] yes=11,no=12,missing=11
				11:leaf=0.0584985502
				12:leaf=-0.0261019375
		4:[f2<585.109985] yes=7,no=8,missing=7
			7:[f3<35.5] yes=13,no=14,missing=13
				13:leaf=-0.00103558588
				14:leaf=-0.0284821931
			8:[f2<589.349976] yes=15,no=16,missing=15
				15:leaf=0.133830458
				16:leaf=0.00430669636
	2:leaf=0.0825757682
booster[89]:
0:[f2<6974.1499] yes=1,no=2,missing=1
	1:[f9<0.951499999] yes=3,no=4,missing=3
		3:[f1<25.5] yes=7,no=8,missing=7
			7:[f2<6587.27002] yes=15,no=16,missing=15
				15:leaf=-0.000378048368
				16:leaf=-0.0658457801
			8:[f7<-5.5] yes=17,no=18,missing=17
				17:leaf=-0.00145660306
				18:leaf=0.0620304234
		4:leaf=-0.043150343
	2:[f2<7369.03516] yes=5,no=6,missing=5
		5:leaf=0.0869904235
		6:[f14<0.754999995] yes=13,no=14,missing=14
			13:[f4<6.5] yes=23,no=24,missing=23
				23:leaf=-0.0179129094
				24:leaf=0.049559094
			14:[f5<3.5] yes=25,no=26,missing=25
				25:leaf=0.0327277742
				26:leaf=-0.0410052799
booster[90]:
0:[f4<318.5] yes=1,no=2,missing=1
	1:[f13<0.665000021] yes=3,no=4,missing=3
		3:[f1<8.5] yes=7,no=8,missing=7
			7:[f6<2.5] yes=15,no=16,missing=15
				15:leaf=0.000806124532
				16:leaf=-0.0182161666
			8:[f10<101.5] yes=17,no=18,missing=17
				17:leaf=-0.0147532811
				18:leaf=0.0245969277
		4:[f0<445.5] yes=9,no=10,missing=9
			9:[f14<0.694999993] yes=19,no=20,missing=20
				19:leaf=0.00692197913
				20:leaf=-0.0156881176
			10:[f10<102] yes=21,no=22,missing=21
				21:leaf=0.00142593298
				22:leaf=0.163235009
	2:[f2<280.5] yes=5,no=6,missing=5
		5:[f2<200.5] yes=11,no=12,missing=11
			11:[f2<185] yes=23,no=24,missing=23
				23:leaf=0.00093795883
				24:leaf=0.122386135
			12:leaf=-0.0873120427
		6:[f3<50] yes=13,no=14,missing=14
			13:[f1<4.5] yes=27,no=28,missing=27
				27:leaf=0.00659677619
				28:leaf=0.0536202155
			14:leaf=0.124744728
booster[91]:
0:[f4<48.5] yes=1,no=2,missing=1
	1:[f4<41.5] yes=3,no=4,missing=3
		3:[f12<0.544499993] yes=7,no=8,missing=7
			7:[f11<3.5] yes=15,no=16,missing=15
				15:leaf=0.00708756549
				16:leaf=-0.013028604
			8:[f0<384.5] yes=17,no=18,missing=17
				17:leaf=-0.00260214228
				18:leaf=0.0176552311
		4:[f7<-7.5] yes=9,no=10,missing=9
			9:[f3<12.5] yes=19,no=20,missing=19
				19:leaf=0.0337734744
				20:leaf=-0.0168578494
			10:[f1<15.5] yes=21,no=22,missing=21
				21:leaf=-0.0549022257
				22:leaf=0.0274996366
	2:[f0<430] yes=5,no=6,missing=5
		5:[f0<128] yes=11,no=12,missing=11
			11:[f5<4.5] yes=23,no=24,missing=23
				23:leaf=0.00221595773
				24:leaf=-0.0219355505
			12:[f1<2] yes=25,no=26,missing=25
				25:leaf=0.00568807637
				26:leaf=0.0472906344
		6:[f1<8.5] yes=13,no=14,missing=13
			13:[f2<156.794998] yes=27,no=28,missing=27
				27:leaf=-0.0384579152
				28:leaf=-0.113320686
			14:leaf=0.0223484524
booster[92]:
0:[f2<17872.1406] yes=1,no=2,missing=1
	1:[f2<16308.8301] yes=3,no=4,missing=3
		3:[f1<51.5] yes=7,no=8,missing=7
			7:[f1<46.5] yes=13,no=14,missing=13
				13:leaf=4.32753295e-005
				14:leaf=-0.0970794037
			8:[f3<23] yes=15,no=16,missing=15
				15:leaf=0.062892355
				16:leaf=-0.0592311397
		4:[f14<0.764999986] yes=9,no=10,missing=10
			9:leaf=-0.15757665
			10:leaf=0.0142626418
	2:[f4<113.5] yes=5,no=6,missing=5
		5:leaf=0.0914449766
		6:leaf=-0.0158463567
booster[93]:
0:[f11<6] yes=1,no=2,missing=1
	1:[f14<0.824999988] yes=3,no=4,missing=3
		3:[f3<10.5] yes=7,no=8,missing=8
			7:[f14<0.685000002] yes=15,no=16,missing=16
				15:leaf=0.0326674245
				16:leaf=-0.00393823907
			8:[f13<0.784999967] yes=17,no=18,missing=17
				17:leaf=-0.000570359465
				18:leaf=-0.0166823212
		4:[f2<1570.90002] yes=9,no=10,missing=9
			9:[f2<1513.52002] yes=19,no=20,missing=19
				19:leaf=0.00226796581
				20:leaf=-0.104264401
			10:[f2<2131] yes=21,no=22,missing=21
				21:leaf=0.0569501594
				22:leaf=0.0075289472
	2:[f12<0.802999973] yes=5,no=6,missing=5
		5:[f1<10] yes=11,no=12,missing=11
			11:[f5<4.5] yes=23,no=24,missing=23
				23:leaf=0.0925666988
				24:leaf=0.0126994569
			12:leaf=-0.0739059523
		6:[f13<0.564999998] yes=13,no=14,missing=13
			13:leaf=-0.0450141989
			14:leaf=0.0461606793
booster[94]:
0:[f2<3285.625] yes=1,no=2,missing=1
	1:[f2<3260.625] yes=3,no=4,missing=3
		3:[f2<3248.44995] yes=7,no=8,missing=7
			7:[f5<6.5] yes=15,no=16,missing=15
				15:leaf=-0.000266960415
				16:leaf=-0.0171566978
			8:leaf=0.100300469
		4:[f14<0.764999986] yes=9,no=10,missing=10
			9:leaf=-0.114197813
			10:leaf=0.0192257855
	2:[f2<3412.65503] yes=5,no=6,missing=5
		5:[f10<183] yes=11,no=12,missing=11
			11:[f4<9.5] yes=17,no=18,missing=17
				17:leaf=-0.0219944157
				18:leaf=0.0929134339
			12:leaf=-0.0551248267
		6:[f2<3437.12012] yes=13,no=14,missing=13
			13:leaf=-0.109747402
			14:[f3<8.5] yes=19,no=20,missing=20
				19:leaf=0.0853232592
				20:leaf=0.00354032265
booster[95]:
0:[f2<98.7350006] yes=1,no=2,missing=1
	1:leaf=-0.0752107352
	2:[f5<16] yes=3,no=4,missing=3
		3:[f2<995.690002] yes=5,no=6,missing=5
			5:[f2<992.790039] yes=7,no=8,missing=7
				7:leaf=-0.00126954855
				8:leaf=-0.108273722
			6:[f2<1007.14001] yes=9,no=10,missing=9
				9:leaf=0.0720490217
				10:leaf=0.00268838834
		4:leaf=-0.0728163868
booster[96]:
0:[f10<242.5] yes=1,no=2,missing=1
	1:[f5<2.5] yes=3,no=4,missing=3
		3:[f0<269] yes=5,no=6,missing=5
			5:[f13<0.485000014] yes=9,no=10,missing=9
				9:leaf=0.0487812869
				10:leaf=-0.0101393042
			6:[f14<0.574999988] yes=11,no=12,missing=11
				11:leaf=-0.00450387923
				12:leaf=-0.0811160356
		4:[f2<585.109985] yes=7,no=8,missing=7
			7:[f2<100.5] yes=13,no=14,missing=13
				13:leaf=0.000581680739
				14:leaf=-0.0123036643
			8:[f2<620.709961] yes=15,no=16,missing=15
				15:leaf=0.0498367287
				16:leaf=0.00286801741
	2:leaf=0.0769206658
booster[97]:
0:[f2<98.7350006] yes=1,no=2,missing=1
	1:leaf=-0.0730573982
	2:[f2<17872.1406] yes=3,no=4,missing=3
		3:[f2<16308.8301] yes=5,no=6,missing=5
			5:[f2<8482.84961] yes=9,no=10,missing=9
				9:leaf=-0.000200212147
				10:leaf=0.0238232631
			6:[f14<0.764999986] yes=11,no=12,missing=12
				11:leaf=-0.142025754
				12:leaf=0.0129089123
		4:[f4<113.5] yes=7,no=8,missing=7
			7:leaf=0.0886868462
			8:leaf=-0.0144974161
booster[98]:
0:[f0<5.5] yes=1,no=2,missing=1
	1:[f0<3.5] yes=3,no=4,missing=3
		3:[f1<22] yes=7,no=8,missing=7
			7:[f1<2] yes=15,no=16,missing=15
				15:leaf=-2.58092168e-005
				16:leaf=0.0432899706
			8:[f2<6971.1499] yes=17,no=18,missing=17
				17:leaf=-0.121101618
				18:leaf=0.0164521039
		4:[f2<574.190002] yes=9,no=10,missing=9
			9:leaf=0.000846310169
			10:[f1<9.5] yes=21,no=22,missing=21
				21:leaf=0.120896161
				22:leaf=-0.00544996513
	2:[f13<0.675000012] yes=5,no=6,missing=5
		5:[f1<8.5] yes=11,no=12,missing=11
			11:[f10<179.5] yes=23,no=24,missing=23
				23:leaf=-0.00232539093
				24:leaf=0.0139031634
			12:[f6<1.5] yes=25,no=26,missing=25
				25:leaf=0.00466084573
				26:leaf=0.0473706834
		6:[f13<0.689999998] yes=13,no=14,missing=13
			13:[f1<5.5] yes=27,no=28,missing=27
				27:leaf=-0.00764892949
				28:leaf=-0.0493749827
			14:[f0<19] yes=29,no=30,missing=29
				29:leaf=-0.0180925447
				30:leaf=0.00360195455
booster[99]:
0:[f11<6] yes=1,no=2,missing=1
	1:[f12<0.544499993] yes=3,no=4,missing=3
		3:[f11<3.5] yes=7,no=8,missing=7
			7:[f9<0.342000008] yes=15,no=16,missing=15
				15:leaf=0.0697014555
				16:leaf=0.000128985266
			8:[f2<1258.25] yes=17,no=18,missing=17
				17:leaf=-0.0138366669
				18:leaf=0.00493810466
		4:[f12<0.555000007] yes=9,no=10,missing=9
			9:[f14<0.63499999] yes=19,no=20,missing=20
				19:leaf=0.0650361106
				20:leaf=-0.0286197271
			10:[f3<35.5] yes=21,no=22,missing=21
				21:leaf=0.0022198467
				22:leaf=-0.0299863014
	2:[f12<0.802999973] yes=5,no=6,missing=5
		5:[f1<10] yes=11,no=12,missing=11
			11:leaf=0.0389377363
			12:leaf=-0.0679901615
		6:leaf=-0.0367270708
booster[100]:
0:[f1<80.5] yes=1,no=2,missing=1
	1:[f9<0.951499999] yes=3,no=4,missing=3
		3:[f10<225.5] yes=7,no=8,missing=7
			7:[f10<222] yes=11,no=12,missing=11
				11:leaf=3.27442795e-005
				12:leaf=-0.102644466
			8:[f0<684.5] yes=13,no=14,missing=13
				13:leaf=0.0823941156
				14:leaf=-0.0359440111
		4:[f2<4171.75] yes=9,no=10,missing=9
			9:leaf=-0.0488798469
			10:leaf=0.0392286703
	2:leaf=0.0508401394
booster[101]:
0:[f5<16] yes=1,no=2,missing=1
	1:[f2<98.7350006] yes=3,no=4,missing=3
		3:leaf=-0.0709912926
		4:[f13<0.435000002] yes=5,no=6,missing=5
			5:[f2<189.300003] yes=7,no=8,missing=7
				7:leaf=-0.00166504073
				8:leaf=0.0261250492
			6:[f10<127.5] yes=9,no=10,missing=9
				9:leaf=0.00180584413
				10:leaf=-0.00522983586
	2:leaf=-0.069202207
booster[102]:
0:[f7<-34.5] yes=1,no=2,missing=1
	1:leaf=0.0505352207
	2:[f7<-28.5] yes=5,no=6,missing=5
		5:leaf=-0.05794058
		6:[f9<0.168500006] yes=9,no=10,missing=9
			9:[f2<2043.34998] yes=11,no=12,missing=11
				11:leaf=0.0233565811
				12:leaf=-0.041752141
			10:[f7<-5.5] yes=13,no=14,missing=13
				13:leaf=-0.00255748071
				14:leaf=0.00253766635
booster[103]:
0:[f14<0.344999999] yes=1,no=2,missing=2
	1:[f5<3.5] yes=3,no=4,missing=3
		3:[f3<13.5] yes=7,no=8,missing=7
			7:[f9<0.668500006] yes=15,no=16,missing=15
				15:leaf=0.057917662
				16:leaf=-0.0421071462
			8:[f14<0.285000026] yes=17,no=18,missing=18
				17:leaf=-0.00233472465
				18:leaf=-0.102054708
		4:[f1<11.5] yes=9,no=10,missing=9
			9:[f12<0.996500015] yes=19,no=20,missing=19
				19:leaf=-0.0412490442
				20:leaf=0.0173933338
			10:[f9<0.51700002] yes=21,no=22,missing=21
				21:leaf=-0.0321020447
				22:leaf=0.0995669737
	2:[f14<0.435000002] yes=5,no=6,missing=6
		5:[f3<19.5] yes=11,no=12,missing=12
			11:[f10<117] yes=23,no=24,missing=23
				23:leaf=0.0852522403
				24:leaf=0.0184845086
			12:[f0<226.5] yes=25,no=26,missing=25
				25:leaf=0.0139722172
				26:leaf=-0.0319789238
		6:[f14<0.454999983] yes=13,no=14,missing=14
			13:[f7<-21] yes=27,no=28,missing=27
				27:leaf=0.059803959
				28:leaf=-0.0792873353
			14:[f13<0.454999983] yes=29,no=30,missing=29
				29:leaf=0.00814538356
				30:leaf=-0.00107536325
booster[104]:
0:[f13<0.965000033] yes=1,no=2,missing=1
	1:[f13<0.879999995] yes=3,no=4,missing=3
		3:[f0<38.5] yes=7,no=8,missing=7
			7:[f2<365.820007] yes=15,no=16,missing=15
				15:leaf=-0.000504889409
				16:leaf=0.0174641311
			8:[f9<0.695500016] yes=17,no=18,missing=17
				17:leaf=0.00010250241
				18:leaf=-0.0124986675
		4:[f2<5833.94531] yes=9,no=10,missing=9
			9:[f2<3309.59497] yes=19,no=20,missing=19
				19:leaf=-0.0214618128
				20:leaf=-0.0663493201
			10:[f1<24.5] yes=21,no=22,missing=21
				21:leaf=0.0479543395
				22:leaf=-0.0204986613
	2:[f14<0.835000038] yes=5,no=6,missing=6
		5:[f2<432.779999] yes=11,no=12,missing=11
			11:[f2<132.660004] yes=23,no=24,missing=23
				23:leaf=0.021930974
				24:leaf=-0.0835840777
			12:[f2<912.059998] yes=25,no=26,missing=25
				25:leaf=0.0863537416
				26:leaf=0.0136744231
		6:[f2<631.640015] yes=13,no=14,missing=13
			13:[f1<2] yes=27,no=28,missing=27
				27:leaf=-0.0120025538
				28:leaf=0.0803360194
			14:[f2<2778.16016] yes=29,no=30,missing=29
				29:leaf=-0.0882869214
				30:leaf=0.0316393152
booster[105]:
0:[f2<98.7350006] yes=1,no=2,missing=1
	1:leaf=-0.0688720644
	2:[f2<17872.1406] yes=3,no=4,missing=3
		3:[f2<16308.8301] yes=5,no=6,missing=5
			5:[f1<51.5] yes=9,no=10,missing=9
				9:leaf=-7.02957113e-005
				10:leaf=0.0395465046
			6:[f5<4.5] yes=11,no=12,missing=11
				11:leaf=-0.126653433
				12:leaf=0.0217659939
		4:[f4<113.5] yes=7,no=8,missing=7
			7:leaf=0.0855358392
			8:leaf=-0.0135823935
booster[106]:
0:[f4<48.5] yes=1,no=2,missing=1
	1:[f13<0.344999999] yes=3,no=4,missing=3
		3:[f9<0.532999992] yes=7,no=8,missing=7
			7:[f6<0.5] yes=15,no=16,missing=15
				15:leaf=0.026355464
				16:leaf=0.110891953
			8:[f0<806] yes=17,no=18,missing=17
				17:leaf=-0.0302728172
				18:leaf=0.0567992702
		4:[f0<185.5] yes=9,no=10,missing=9
			9:[f11<2] yes=19,no=20,missing=19
				19:leaf=0.0281679761
				20:leaf=-0.0127080772
			10:[f14<0.745000005] yes=21,no=22,missing=21
				21:leaf=-0.00351688336
				22:leaf=0.030815063
	2:[f0<430] yes=5,no=6,missing=5
		5:[f0<128] yes=11,no=12,missing=11
			11:[f5<4.5] yes=23,no=24,missing=23
				23:leaf=0.00181129237
				24:leaf=-0.0203118064
			12:[f14<0.474999994] yes=25,no=26,missing=25
				25:leaf=-0.00921902712
				26:leaf=0.0261831935
		6:[f1<8.5] yes=13,no=14,missing=13
			13:[f2<156.794998] yes=27,no=28,missing=27
				27:leaf=-0.035390649
				28:leaf=-0.109890066
			14:leaf=0.0178748071
booster[107]:
0:[f2<1187.41992] yes=1,no=2,missing=1
	1:[f2<1155.73999] yes=3,no=4,missing=3
		3:[f6<11.5] yes=7,no=8,missing=7
			7:[f2<1152.94995] yes=15,no=16,missing=15
				15:leaf=-0.00112559902
				16:leaf=0.103824392
			8:leaf=0.10438557
		4:[f10<161.5] yes=9,no=10,missing=9
			9:[f10<95] yes=17,no=18,missing=17
				17:leaf=0.0220293682
				18:leaf=-0.0995236561
			10:leaf=0.030908633
	2:[f2<1206.85498] yes=5,no=6,missing=5
		5:[f10<125.5] yes=11,no=12,missing=11
			11:[f12<0.923500001] yes=21,no=22,missing=21
				21:leaf=0.141069636
				22:leaf=0.0235523414
			12:[f14<0.75] yes=23,no=24,missing=24
				23:leaf=0.0550834127
				24:leaf=-0.0703101084
		6:[f13<0.375] yes=13,no=14,missing=13
			13:[f14<0.454999983] yes=25,no=26,missing=25
				25:leaf=0.11278899
				26:leaf=0.00512676127
			14:[f4<5.5] yes=27,no=28,missing=27
				27:leaf=-0.0241231043
				28:leaf=0.00408150023
booster[108]:
0:[f10<242.5] yes=1,no=2,missing=1
	1:[f10<233] yes=3,no=4,missing=3
		3:[f10<225.5] yes=5,no=6,missing=5
			5:[f10<222] yes=9,no=10,missing=9
				9:leaf=7.27088627e-005
				10:leaf=-0.0980824381
			6:leaf=0.0660777837
		4:[f1<4.5] yes=7,no=8,missing=7
			7:leaf=0.0270232651
			8:[f2<4171.75] yes=11,no=12,missing=11
				11:leaf=-0.0841364637
				12:leaf=0.0327225588
	2:leaf=0.0689951405
booster[109]:
0:[f5<16] yes=1,no=2,missing=1
	1:[f2<499.5] yes=3,no=4,missing=3
		3:[f2<480.325012] yes=5,no=6,missing=5
			5:[f2<100.5] yes=9,no=10,missing=9
				9:leaf=0.000807703589
				10:leaf=-0.0126512898
			6:[f13<0.574999988] yes=11,no=12,missing=11
				11:leaf=-0.0286363307
				12:leaf=-0.122209489
		4:[f4<405.5] yes=7,no=8,missing=7
			7:[f7<-17.5] yes=13,no=14,missing=13
				13:leaf=0.0673782229
				14:leaf=0.00108526775
			8:leaf=0.0722648054
	2:leaf=-0.064694263
booster[110]:
0:[f13<0.219999999] yes=1,no=2,missing=1
	1:[f1<2] yes=3,no=4,missing=3
		3:leaf=-0.0585391298
		4:leaf=0.0398353785
	2:[f13<0.284999996] yes=5,no=6,missing=5
		5:[f7<-10.5] yes=9,no=10,missing=9
			9:leaf=-0.0544082709
			10:leaf=0.0871906206
		6:[f5<2.5] yes=11,no=12,missing=11
			11:[f0<269] yes=15,no=16,missing=15
				15:leaf=0.00482248794
				16:leaf=-0.0320931487
			12:[f0<274.5] yes=17,no=18,missing=17
				17:leaf=-0.000802938361
				18:leaf=0.00554958032
booster[111]:
0:[f2<98.7350006] yes=1,no=2,missing=1
	1:leaf=-0.0669814423
	2:[f11<6] yes=3,no=4,missing=3
		3:[f12<0.544499993] yes=5,no=6,missing=5
			5:[f12<0.294499993] yes=9,no=10,missing=9
				9:leaf=0.00264759245
				10:leaf=-0.0118515631
			6:[f3<35.5] yes=11,no=12,missing=11
				11:leaf=0.00260618562
				12:leaf=-0.0272378754
		4:[f12<0.802999973] yes=7,no=8,missing=7
			7:[f1<10] yes=13,no=14,missing=13
				13:leaf=0.0366959684
				14:leaf=-0.063622281
			8:leaf=-0.0338804238
booster[112]:
0:[f10<83.5] yes=1,no=2,missing=1
	1:[f12<0.819000006] yes=3,no=4,missing=3
		3:[f10<74.5] yes=7,no=8,missing=7
			7:[f0<198] yes=15,no=16,missing=15
				15:leaf=0.0682398304
				16:leaf=-0.0181562267
			8:[f3<39] yes=17,no=18,missing=17
				17:leaf=-0.0623688363
				18:leaf=0.0283077843
		4:[f14<0.569999993] yes=9,no=10,missing=10
			9:[f3<11.5] yes=19,no=20,missing=19
				19:leaf=0.0167697947
				20:leaf=-0.0881190747
			10:[f4<17] yes=21,no=22,missing=21
				21:leaf=0.112179004
				22:leaf=0.0221390165
	2:[f10<84.5] yes=5,no=6,missing=5
		5:[f3<14.5] yes=11,no=12,missing=12
			11:[f1<9.5] yes=23,no=24,missing=23
				23:leaf=0.0181648042
				24:leaf=-0.0617768541
			12:[f9<0.462500036] yes=25,no=26,missing=25
				25:leaf=0.157947883
				26:leaf=-0.000782544725
		6:[f11<4.5] yes=13,no=14,missing=13
			13:[f9<0.64349997] yes=27,no=28,missing=27
				27:leaf=-0.000702559541
				28:leaf=0.00922535453
			14:[f2<6723.73535] yes=29,no=30,missing=29
				29:leaf=-0.0138765266
				30:leaf=0.0829565153
booster[113]:
0:[f1<80.5] yes=1,no=2,missing=1
	1:[f10<242.5] yes=3,no=4,missing=3
		3:[f4<13.5] yes=7,no=8,missing=7
			7:[f13<0.834999979] yes=9,no=10,missing=9
				9:leaf=-0.00470579369
				10:leaf=0.0999101773
			8:[f14<0.63499999] yes=11,no=12,missing=12
				11:leaf=0.00843287911
				12:leaf=-0.000760319817
		4:leaf=0.0665369779
	2:leaf=0.0472381599
booster[114]:
0:[f5<16] yes=1,no=2,missing=1
	1:[f2<995.690002] yes=3,no=4,missing=3
		3:[f13<0.784999967] yes=5,no=6,missing=5
			5:[f12<0.851000011] yes=9,no=10,missing=9
				9:leaf=0.00364456372
				10:leaf=-0.00558000803
			6:[f12<0.793500006] yes=11,no=12,missing=11
				11:leaf=-0.0456750207
				12:leaf=-0.000466211204
		4:[f2<1007.14001] yes=7,no=8,missing=7
			7:leaf=0.0649659485
			8:[f4<405.5] yes=15,no=16,missing=15
				15:leaf=0.00163892529
				16:leaf=0.0737637058
	2:leaf=-0.0620732568
booster[115]:
0:[f13<0.965000033] yes=1,no=2,missing=1
	1:[f13<0.879999995] yes=3,no=4,missing=3
		3:[f13<0.819999993] yes=7,no=8,missing=7
			7:[f12<0.145000011] yes=15,no=16,missing=15
				15:leaf=0.00598280877
				16:leaf=-0.00140362943
			8:[f14<0.549999952] yes=17,no=18,missing=17
				17:leaf=-0.0515333675
				18:leaf=0.0191449746
		4:[f2<5833.94531] yes=9,no=10,missing=9
			9:[f2<3309.59497] yes=19,no=20,missing=19
				19:leaf=-0.0194789376
				20:leaf=-0.0610225983
			10:leaf=0.0215910282
	2:[f2<432.779999] yes=5,no=6,missing=5
		5:[f2<132.660004] yes=11,no=12,missing=11
			11:leaf=0.0219412502
			12:leaf=-0.0671869442
		6:[f2<912.059998] yes=13,no=14,missing=13
			13:leaf=0.0672140867
			14:[f2<1018.32501] yes=29,no=30,missing=29
				29:leaf=-0.106747091
				30:leaf=0.0178949442
booster[116]:
0:[f12<0.544499993] yes=1,no=2,missing=1
	1:[f12<0.482500017] yes=3,no=4,missing=3
		3:[f7<-7.5] yes=7,no=8,missing=7
			7:[f2<1506.375] yes=15,no=16,missing=15
				15:leaf=0.000779948081
				16:leaf=0.038101621
			8:[f13<0.454999983] yes=17,no=18,missing=17
				17:leaf=0.0256469995
				18:leaf=-0.0121988244
		4:[f14<0.675000012] yes=9,no=10,missing=9
			9:[f1<5.5] yes=19,no=20,missing=19
				19:leaf=-0.0714508072
				20:leaf=-0.00564943952
			10:[f10<180] yes=21,no=22,missing=21
				21:leaf=-0.00594596285
				22:leaf=0.0671865866
	2:[f12<0.555000007] yes=5,no=6,missing=5
		5:[f14<0.63499999] yes=11,no=12,missing=12
			11:leaf=0.0553022809
			12:leaf=-0.026523754
		6:[f3<35.5] yes=13,no=14,missing=13
			13:[f3<28.5] yes=25,no=26,missing=25
				25:leaf=0.000736913586
				26:leaf=0.0219300427
			14:[f2<1609.77002] yes=27,no=28,missing=27
				27:leaf=-0.012419235
				28:leaf=-0.0709284469
booster[117]:
0:[f2<3205.71484] yes=1,no=2,missing=1
	1:[f2<3125.35986] yes=3,no=4,missing=3
		3:[f2<3094.66992] yes=7,no=8,missing=7
			7:[f2<3077.39502] yes=13,no=14,missing=13
				13:leaf=-0.000473168417
				14:leaf=-0.106256224
			8:[f9<0.593999982] yes=15,no=16,missing=15
				15:leaf=0.125827953
				16:leaf=-0.0152533343
		4:[f0<308] yes=9,no=10,missing=9
			9:[f9<0.421000004] yes=17,no=18,missing=17
				17:leaf=0.0189080406
				18:leaf=-0.116311349
			10:leaf=0.0667433664
	2:[f3<8.5] yes=5,no=6,missing=6
		5:leaf=0.0849119052
		6:[f10<149.5] yes=11,no=12,missing=11
			11:[f10<139.5] yes=19,no=20,missing=19
				19:leaf=0.00590137951
				20:leaf=0.0437574238
			12:[f0<42.5] yes=21,no=22,missing=21
				21:leaf=0.0552170239
				22:leaf=-0.0217163265
booster[118]:
0:[f2<98.7350006] yes=1,no=2,missing=1
	1:leaf=-0.0650512055
	2:[f14<0.344999999] yes=3,no=4,missing=4
		3:[f3<13.5] yes=5,no=6,missing=5
			5:[f3<12.5] yes=9,no=10,missing=9
				9:leaf=-0.00404151808
				10:leaf=0.109559409
			6:[f13<0.444999993] yes=11,no=12,missing=11
				11:leaf=-0.0564400516
